tree
version=v3
num_class=1
num_tree_per_iteration=1
label_index=0
max_feature_idx=27
objective=binary sigmoid:1
feature_names=Column_0 Column_1 Column_2 Column_3 Column_4 Column_5 Column_6 Column_7 Column_8 Column_9 Column_10 Column_11 Column_12 Column_13 Column_14 Column_15 Column_16 Column_17 Column_18 Column_19 Column_20 Column_21 Column_22 Column_23 Column_24 Column_25 Column_26 Column_27
feature_infos=[0.27500000000000002:6.6950000000000003] [-2.4169999999999998:2.4300000000000002] [-1.7429999999999999:1.7429999999999999] [0.019:5.7000000000000002] [-1.7429999999999999:1.7429999999999999] [0.159:4.1900000000000004] [-2.9409999999999998:2.9699999999999998] [-1.7410000000000001:1.7410000000000001] [0:2.173] [0.19:5.1929999999999996] [-2.9039999999999999:2.9089999999999998] [-1.742:1.7429999999999999] [0:2.2149999999999999] [0.26400000000000001:6.5229999999999997] [-2.7279999999999998:2.7269999999999999] [-1.742:1.742] [0:2.548] [0.36499999999999999:6.0679999999999996] [-2.4950000000000001:2.496] [-1.74:1.7429999999999999] [0:3.1019999999999999] [0.17199999999999999:13.098000000000001] [0.41899999999999998:7.3920000000000003] [0.46100000000000002:3.6819999999999999] [0.38400000000000001:6.5830000000000002] [0.092999999999999999:7.8600000000000003] [0.38900000000000001:4.5430000000000001] [0.48899999999999999:4.3159999999999998]
tree_sizes=6609 6628 6683 6650 6680 6686 6683 6689 6683 6702 6681 6697 6695 6686 6699 6685 6694 6701 6668 6692 6703 6714 6709 6666 6717 6702 6718 6714 6715 6689 6700 6715 6688 6698 6699 6673 6691 6712 6723 6723 6715 6693 6721 6720 6714 6701 6710 6707 6712 6687 6678 6719 6693 6708 6691 6718 6686 6711 6734 6728 6713 6696 6717 6683 6721 6697 6723 6728 6725 6721 6706 6713 6691 6695 6715 6734 6730 6696 6709 6719 6709 6735 6704 6704 6714 6703 6733 6715 6711 6722 6720 6727 6738 6700 6724 6721 6705 6731 6735 6690

Tree=0
num_leaves=63
num_cat=0
split_feature=25 26 27 22 24 25 25 5 27 26 26 24 25 3 5 21 5 24 26 9 3 5 25 25 25 9 9 26 27 5 26 23 25 2 22 27 22 3 9 24 23 5 22 6 21 3 26 3 0 19 8 25 10 27 13 23 13 21 22 25 25 13
split_gain=268.339 148.803 164.699 57.2835 70.2806 50.1971 61.1315 35.1219 31.5319 30.8783 24.4616 23.5678 22.4151 16.3177 14.857 21.4197 14.7934 13.916 17.2534 12.9806 12.7432 15.5758 12.2696 11.7131 14.6089 11.5818 13.9795 11.4079 11.4076 11.391 9.85256 12.1602 9.45289 11.283 12.5575 9.26146 9.2009 8.29366 10.4725 8.21314 8.12691 8.05997 8.97046 7.61117 7.44929 7.3977 7.79763 7.30743 7.18742 7.1629 6.72171 6.72603 8.43597 6.44976 6.36236 6.31645 5.75056 5.21218 4.83371 4.75347 7.74943 4.70475
threshold=1.2815000000000003 0.81150000000000022 0.90650000000000019 1.0485000000000002 1.0795000000000001 0.98450000000000004 0.67850000000000021 0.82050000000000012 0.85750000000000004 0.92050000000000021 0.98250000000000004 1.2435000000000003 0.64950000000000008 1.8135000000000001 0.87650000000000017 1.0625000000000002 0.88150000000000006 0.71850000000000003 0.73350000000000015 0.86550000000000005 1.7315000000000003 1.4220000000000004 0.93350000000000011 1.0565000000000002 0.62350000000000005 1.1155000000000002 0.70550000000000013 0.84350000000000003 1.0885000000000002 1.3505000000000003 0.72850000000000004 0.98450000000000004 2.0390000000000001 1.1325000000000003 1.1945000000000003 0.96150000000000013 0.94650000000000001 0.50950000000000017 0.98650000000000004 0.89050000000000018 1.0025000000000002 0.99850000000000005 0.98350000000000015 0.53250000000000008 0.79950000000000021 0.85550000000000004 0.77650000000000008 1.3585000000000003 1.0575000000000003 -0.18749999999999997 1.0000000180025095e-35 1.5585000000000002 0.27550000000000008 0.89750000000000008 0.8155 1.0545000000000002 1.0475000000000001 0.87450000000000017 1.0025000000000002 0.99250000000000005 0.86450000000000016 0.75350000000000017
decision_type=2 2 2 2 2 2 2 2 2 2 2 2 2 2 2 2 2 2 2 2 2 2 2 2 2 2 2 2 2 2 2 2 2 2 2 2 2 2 2 2 2 2 2 2 2 2 2 2 2 2 2 2 2 2 2 2 2 2 2 2 2 2
left_child=1 7 5 4 28 6 19 17 29 16 36 32 49 50 15 27 -7 30 55 39 21 23 45 24 -6 26 -14 -8 35 37 31 -1 33 34 53 -4 -2 -9 57 -3 59 42 -11 -21 -33 46 -20 -27 -37 -5 -13 -52 -53 -12 -22 -19 61 -39 -29 60 -28 -26
right_child=10 2 3 12 20 9 14 8 -10 41 11 13 25 -15 -16 -17 -18 18 22 43 54 -23 -24 -25 56 47 40 58 -30 -31 -32 44 -34 -35 -36 48 -38 38 -40 -41 -42 -43 -44 -45 -46 -47 -48 -49 -50 -51 51 52 -54 -55 -56 -57 -58 -59 -60 -61 -62 -63
leaf_value=-0.0010244683108531355 0.052219459818811598 0.16145958679912942 -0.0040652749565562724 0.13430685696485456 0.059217826312045183 0.03525011970536418 0.17304221980535853 0.18784888467930091 0.0011708913258296205 0.11975123226496162 0.025942780626248677 0.14711918402951241 0.21551187416153197 -0.03646502878530157 0.27705583881797213 0.11198264592647192 0.15621570817441871 -0.01211903839144314 0.085081354656604047 0.22910887812536618 0.11843837849027838 0.23790496464024163 -0.010765838620290555 0.066391151967609585 0.16938454622444407 0.23130265954744927 0.078886622464399217 0.24319988258594635 -0.03444881877934812 0.23172756037025274 0.16441202266346233 0.041912774619685789 -0.055469387300585496 0.086172472258640109 0.066095908381176294 0.12772437700503037 0.14296801480672852 0.044346297513923827 0.19306158549513724 0.070202478265202983 0.18898390824403946 0.24759052442158219 0.2286971356340318 0.13592360642867105 0.13008995574059221 0.057598154858784445 0.18523446507507341 0.15385482775463555 0.02632886839312297 0.037972785171871831 0.12511408322785872 0.0035402733727372127 0.10733159595302599 -0.040186603022765902 0.022039004316741814 0.061899577406788371 0.13240140223964231 0.11963341205441314 0.29327067206939417 0.054447713301327014 0.1832407645907175 0.24632869773568097
leaf_weight=14.693749040365217 21.168960481882095 17.931354761123657 23.410379827022552 15.191842228174211 13.448516070842741 25.65179917216301 19.425634324550629 24.157519608736038 15.440888822078703 17.682308167219166 19.923727512359619 13.946609258651732 25.900845766067505 13.199469476938246 125.79343459010124 13.996418595314024 16.686121791601181 47.816946029663086 17.184214979410175 22.912286639213562 13.946609258651735 16.188028603792191 12.701376289129255 21.168960481882095 18.927541136741638 47.0698062479496 15.440888822078707 69.733046293258667 30.88177764415741 16.188028603792191 16.935168385505676 13.697562664747236 29.387498080730438 15.938982009887694 19.923727512359619 15.191842228174211 23.659426420927048 14.942795634269713 13.448516070842741 21.916100263595581 15.440888822078703 20.172774106264114 13.199469476938246 14.195655852556227 31.877964019775391 25.153705984354019 14.195655852556227 16.437075197696686 12.950422883033751 15.689935415983198 14.444702446460722 20.42182070016861 12.701376289129255 56.782623410224915 13.448516070842741 15.191842228174208 18.927541136741638 23.908473014831543 26.647985547780991 13.199469476938246 13.199469476938246 13.697562664747236
leaf_count=59 85 72 94 61 54 103 78 97 62 71 80 56 104 53 505 56 67 192 69 92 56 65 51 85 76 189 62 280 124 65 68 55 118 64 80 61 95 60 54 88 62 81 53 57 128 101 57 66 52 63 58 82 51 228 54 61 76 96 107 53 53 55
internal_value=0 0.215885 0.441972 -0.0277682 -0.378473 0.871805 1.05373 -0.364901 0.0980631 0.224012 -0.907924 -1.04704 0.391307 -0.592435 1.28899 1.05165 -0.407416 -0.603814 -0.800762 0.272352 0.0802519 0.242379 -0.456184 0.0733023 0.283703 0.554327 0.308806 1.19287 -1.10052 0.318566 -0.266461 -0.455826 -1.28631 -1.15446 -1.28304 -0.812598 -0.235518 0.157221 -0.0666202 -0.123982 0.0331391 0.747635 0.426505 0.697945 -0.200777 -0.256646 0.0672236 0.87591 -0.426019 -0.383034 -0.375955 -0.554945 -0.803264 -1.46676 -0.525513 -1.17939 0.525839 -0.329895 1.33377 -0.195684 0.0331391 0.78023
internal_weight=0 1133.24 815.702 389.758 212.188 425.944 332.552 317.534 108.086 93.3925 261.499 216.671 177.57 74.714 255.597 129.803 42.3379 209.448 132.244 76.9554 129.753 102.358 69.235 86.1701 65.0012 146.688 83.1816 115.807 82.4344 92.6453 77.2044 60.2693 141.957 112.569 96.6301 51.5526 44.8284 76.4573 52.2998 39.8475 57.2807 51.0546 30.8818 37.1079 45.5755 56.5336 31.3799 63.5069 28.1423 30.8818 61.5145 47.5679 33.1232 76.7064 27.3951 63.0088 51.5526 38.8513 96.381 41.8398 28.6404 32.6251
internal_count=5600 4550 3275 1565 852 1710 1335 1275 434 375 1050 870 713 300 1026 521 170 841 531 309 521 411 278 346 261 589 334 465 331 372 310 242 570 452 388 207 180 307 210 160 230 205 124 149 183 227 126 255 113 124 247 191 133 308 110 253 207 156 387 168 115 131
shrinkage=1


Tree=1
num_leaves=63
num_cat=0
split_feature=25 25 25 26 5 5 3 13 26 26 24 22 26 24 13 5 3 17 25 19 9 5 5 26 25 13 22 26 14 5 13 9 13 22 11 18 22 22 26 24 22 10 5 3 18 17 15 19 5 15 3 26 6 11 15 25 26 18 11 10 11 26
split_gain=217.166 125.066 83.0496 85.0711 37.8711 37.2307 28.5102 24.1729 21.3802 19.7029 18.9479 18.6967 18.163 15.2035 13.4721 13.2298 13.138 12.7715 12.0884 11.9507 11.9604 11.1872 9.47171 11.8327 9.40755 9.40102 9.14694 13.5576 10.2908 8.96218 8.87723 8.82735 12.8435 9.58524 8.7614 11.025 8.40102 8.1794 7.49553 7.43208 7.14034 8.47536 6.84165 6.81221 6.69135 10.3536 6.38882 6.19339 6.12608 5.97357 5.81632 5.99901 6.60831 5.80349 5.75268 5.67694 8.76066 7.29149 5.56725 5.54346 5.46695 5.36332
threshold=1.2815000000000003 0.62350000000000005 0.96550000000000014 0.77650000000000008 0.87650000000000017 0.82050000000000012 1.5465000000000002 0.9405 0.88850000000000018 0.98250000000000004 1.2435000000000003 1.0355000000000001 1.0375000000000003 0.72150000000000014 0.73250000000000004 0.75150000000000017 1.8135000000000001 1.5035000000000003 0.8135 0.75350000000000017 0.77550000000000019 0.81250000000000011 1.5245000000000002 0.93750000000000011 1.8525000000000003 0.61850000000000016 1.0885000000000002 1.1705000000000003 0.078500000000000014 1.1815000000000002 0.72150000000000014 1.0065000000000002 0.68950000000000011 0.7985000000000001 0.5375000000000002 0.14600000000000002 1.0325000000000002 1.0285000000000002 1.3345000000000002 1.0035000000000001 0.97750000000000015 0.13550000000000004 1.0275000000000001 0.61450000000000016 0.7875000000000002 1.0035000000000001 -0.14449999999999996 -0.15899999999999997 1.2185000000000004 0.20350000000000004 1.1435000000000002 0.84350000000000003 0.65450000000000019 0.12850000000000003 -1.2139999999999997 0.73750000000000016 0.85650000000000015 -0.15449999999999997 0.13950000000000004 0.20550000000000002 0.11150000000000002 0.94650000000000001
decision_type=2 2 2 2 2 2 2 2 2 2 2 2 2 2 2 2 2 2 2 2 2 2 2 2 2 2 2 2 2 2 2 2 2 2 2 2 2 2 2 2 2 2 2 2 2 2 2 2 2 2 2 2 2 2 2 2 2 2 2 2 2 2
left_child=1 7 3 5 8 40 12 13 -4 30 37 44 15 19 -8 36 17 24 21 20 25 -14 23 43 47 -1 27 29 -29 34 -2 33 -33 -15 35 -6 50 54 -39 -20 41 58 -35 -9 45 -10 -16 -12 -28 -7 51 -5 -53 -13 -11 61 57 -57 -3 -45 -31 -17
right_child=9 2 4 6 26 49 14 22 11 10 16 53 18 31 46 55 -18 -19 39 -21 -22 -23 -24 -25 -26 -27 48 28 -30 60 -32 32 -34 42 -36 -37 -38 38 -40 -41 -42 -43 -44 59 -46 -47 -48 -49 -50 -51 -52 52 -54 -55 -56 56 -58 -59 -60 -61 -62 -63
leaf_value=0.027216928023554351 -0.091901310454480259 -0.080842528883480397 -0.10318536946830921 0.03005927971754075 0.095123259210089642 0.10931445656098591 0.079835258220289029 0.061447671827004384 -0.03232095691542497 -0.069723389214814732 0.029883995570759089 0.0066518593555987037 -0.05755812012186029 -0.044770942592106434 0.027823403027230527 0.10578940099322826 -0.14357143008212922 0.04754176285150271 0.036255793208719307 -0.083633076397924569 0.081806789167990224 0.047183054340815524 0.078921702960966553 -0.077121804705585925 -0.11422049420624403 -0.09164928119230481 0.028943667766430117 0.010289963008800078 -0.11638744026496146 0.034276826078049043 0.0068027519391853078 0.034781594332749244 -0.10114977674356088 -0.13104314686779947 -0.050878916431802312 -0.027274566124074036 0.12082570277264156 -0.045882774167979583 -0.12388741527349437 0.10674361594539082 -0.01588052294321991 -0.034361819210698412 -0.051353495733864142 -0.041754670663953122 0.0054201306911306731 -0.1467534685063917 -0.043889910222818122 -0.064541807353498057 0.10227436983649639 0.020062257085552225 0.00023005944995118551 0.11478474632765595 0.028725078379600477 0.10164612276934933 -0.14266053488270411 0.026510295642172943 0.13697336875134272 0.12384150048247232 -0.16766806918622182 0.035104244862985683 0.12221083158157771 0.02960292075542172
leaf_weight=13.960099637508394 12.715947628021238 15.974024936556818 46.174847692251205 25.591199710965157 15.617684230208399 15.640188068151476 24.762585997581482 18.89501827955246 19.678840503096581 12.492879152297972 12.45941151678562 13.39649346470833 15.142415061593054 27.197379469871521 23.315500348806381 32.401773616671562 13.245596289634703 14.699232667684553 24.042548328638077 19.674172073602676 15.157028168439863 31.225400850176811 13.895134523510931 19.960681974887848 18.724718764424324 12.712732151150702 24.527433678507805 12.699147999286653 12.95473776757717 15.347320109605791 32.148622870445251 14.405433967709543 13.4323803037405 53.882863089442253 18.119930163025856 13.916978269815443 26.641549557447433 26.228486806154251 23.227969288825989 39.588955074548721 19.20222008228302 18.225297644734383 13.465915754437445 23.918483257293701 13.450997307896612 13.21696515381336 26.590881302952766 15.697844415903093 21.272988930344582 14.405990198254583 15.117324411869047 32.069167792797089 12.362095236778258 12.369390442967413 80.450117886066437 14.816029891371729 117.30809614062309 16.018184825778008 13.734468191862105 15.442936509847639 13.109435379505156 12.926385268568991
leaf_count=56 51 64 185 103 63 63 100 76 79 50 50 54 61 109 94 131 53 59 97 79 61 126 56 80 75 51 99 51 52 62 129 58 54 216 73 56 108 105 93 160 77 73 54 96 54 53 107 63 86 58 61 130 50 50 322 60 477 65 55 62 53 52
internal_value=0 0.195377 0.384708 0.594684 -0.0789966 -0.259995 0.764221 -0.389736 -0.500554 -0.815044 -0.939648 -0.160354 0.866516 -0.599192 0.195339 0.992062 -0.532221 -0.337887 0.518121 -0.193585 0.108723 0.129776 0.0284091 -0.106747 -0.592888 -0.294368 0.25892 0.0918959 -0.536798 0.303802 -0.211729 -0.803029 -0.308084 -0.948759 0.0386328 0.374484 0.718176 -1.15374 -0.825188 0.801105 -0.674066 -0.880478 -1.1511 0.120924 -0.540009 -0.78298 -0.103865 -0.22759 0.630037 0.665214 0.564822 0.686266 0.908404 0.522556 -1.32857 1.1503 1.24506 0.770733 -1.20983 -0.116001 0.747862 0.84063
internal_weight=0 1128.96 852.955 587.102 265.853 97.1822 489.92 276 118.288 262.091 217.226 72.1127 415.251 183.888 74.669 305.252 74.8268 61.5812 109.999 61.504 41.8299 46.3678 92.1123 78.2171 46.882 26.6728 147.566 101.765 25.6539 76.1113 44.8646 122.384 27.8378 94.5462 47.6546 29.5347 111.781 142.399 49.4565 63.6315 67.136 47.9338 67.3488 58.2564 46.3468 32.8958 49.9064 28.1573 45.8004 30.0462 85.1398 70.0225 44.4313 25.7659 92.943 193.47 148.142 30.8342 29.7085 39.3614 28.4568 45.3282
internal_count=5600 4550 3442 2372 1070 390 1982 1108 475 1050 870 290 1681 738 301 1237 300 247 444 247 168 187 370 314 188 107 595 410 103 307 180 491 112 379 192 119 452 570 198 257 269 192 270 234 186 132 201 113 185 121 344 283 180 104 372 785 602 125 119 158 115 183
shrinkage=0.1


Tree=2
num_leaves=63
num_cat=0
split_feature=27 26 22 24 9 22 24 3 22 22 27 22 26 27 26 13 27 24 23 27 18 24 22 15 26 3 4 2 2 2 11 24 13 26 4 22 14 27 22 0 3 24 27 3 3 0 23 15 3 0 9 24 4 8 19 11 27 22 13 2 2 18
split_gain=119.612 141.504 61.1166 84.9417 19.6228 16.9684 16.8767 16.3047 16.1706 15.6234 19.9781 15.0566 14.0909 13.4093 12.854 12.5856 12.1569 10.01 8.85708 8.78912 10.0612 8.77809 8.64902 11.2984 8.32611 7.96633 7.95326 7.86837 13.0874 7.56998 7.42655 7.23674 6.94003 6.9242 6.88366 7.52316 6.84087 6.82209 10.8341 6.86395 6.79415 6.6596 12.5274 6.29587 6.26953 5.96962 5.62267 5.60771 5.56624 8.73268 5.661 5.2975 5.27339 5.13163 8.66416 6.10977 4.93501 6.18337 4.96001 5.13126 4.8299 9.20383
threshold=0.90450000000000019 0.81150000000000022 1.0465000000000002 1.0795000000000001 1.1375000000000002 0.99050000000000005 0.71850000000000003 1.7675000000000003 0.74850000000000005 0.7915000000000002 0.85050000000000014 0.78450000000000009 0.72850000000000004 1.1775000000000002 0.73350000000000015 0.54250000000000009 1.0855000000000004 0.73550000000000015 1.0255000000000003 1.0105000000000002 -1.2709999999999997 0.9195000000000001 0.73650000000000004 0.59650000000000014 0.83650000000000013 1.2105000000000004 0.97800000000000009 -1.1099999999999997 0.73650000000000004 0.44550000000000006 -0.66599999999999993 0.93050000000000022 1.1145000000000003 0.96750000000000014 -0.67849999999999999 0.9195000000000001 -1.0374999999999999 0.99050000000000005 0.87550000000000006 1.0725000000000002 0.89250000000000018 0.96550000000000014 0.72950000000000015 0.6585000000000002 0.91150000000000009 0.64750000000000008 0.98050000000000004 -0.044499999999999991 0.74450000000000005 0.89850000000000019 0.79350000000000021 0.83550000000000002 -0.20899999999999996 1.6300000000000001 -0.40949999999999992 0.46750000000000008 0.85750000000000004 1.0575000000000003 0.56450000000000011 -1.2189999999999996 0.19450000000000003 0.43750000000000006
decision_type=2 2 2 2 2 2 2 2 2 2 2 2 2 2 2 2 2 2 2 2 2 2 2 2 2 2 2 2 2 2 2 2 2 2 2 2 2 2 2 2 2 2 2 2 2 2 2 2 2 2 2 2 2 2 2 2 2 2 2 2 2 2
left_child=1 4 3 11 6 9 12 19 -5 15 24 -2 22 30 18 -3 17 -13 -8 27 -21 -12 -1 34 52 -15 36 -4 40 -27 44 -19 -28 -23 -24 -36 -22 38 -32 45 -29 42 -16 -14 -10 -39 -7 -6 49 -26 -51 -44 -11 55 -55 -50 58 -58 -48 -60 61 -38
right_child=2 5 7 8 47 46 14 -9 13 10 21 16 43 25 41 -17 -18 31 -20 20 26 33 23 -25 48 29 32 28 -30 -31 37 -33 -34 -35 35 -37 60 39 -40 -41 -42 -43 51 -45 -46 -47 56 -49 53 50 -52 -53 -54 54 -56 -57 57 -59 59 -61 -62 -63
leaf_value=0.047619906391579918 -0.032306948107802685 0.017215511149916287 0.11719311312700197 0.060228337292055761 0.010930084897963535 0.14796291586009866 -0.10848974165120516 -0.060698065424158003 -0.023045074543322074 -0.048342541827706628 -0.066962604007373722 -0.020274888767922467 0.091798415303602179 -0.01954736308249358 -0.0026352977734042876 0.098045733474172836 -0.16261539217748347 -0.14143854326699581 -0.031253531575305776 -0.061824640459766905 -0.026721815878103784 -0.038326286068203923 -0.014585001693184019 0.015917165376820374 -0.0027325197412322415 -0.059720077136724281 0.017541562355874934 -0.049011341474208721 0.10401821967094411 -0.1609379201621684 0.083601795946469243 -0.076292254043196811 -0.081537730602669833 0.049523846395534067 -0.14324554010620369 -0.046409136883573503 -0.022047953207813054 -0.066594404096396498 -0.033486983958383586 -0.10728722795945228 0.047237229417065728 0.02591463786999464 -0.046866466680372747 0.00436957184617016 0.065283868166261652 0.027488003765049718 0.033557396777165509 0.097296513349827266 0.14063347138672572 0.1085642104599506 0.031236443936713099 -0.13018094494585844 0.043108636251477102 -0.0083822267037804484 0.092344112444433413 0.054399778932536627 -0.0066112536347281113 0.078214512914451667 0.044676751963723921 0.11180096422256439 0.059717485028134037 0.064590061578723199
leaf_weight=12.434887439012526 19.675647348165512 25.33183678984642 12.555625841021536 24.999934285879135 17.305883049964908 13.916453912854193 54.304497092962265 34.002827137708664 12.892248332500456 12.625445425510408 22.482076793909073 12.71360260248184 16.556513130664825 19.83488230407238 33.825906500220299 80.406748354434967 54.494798377156258 44.553067684173584 20.434255734086037 21.557743847370148 22.249314412474632 15.549436777830122 14.938176661729811 22.161622226238251 28.497790187597275 18.161913976073269 13.101320236921312 18.082259610295299 15.056915536522864 12.456785216927527 12.388222262263296 27.623871266841888 15.355738610029219 21.209784254431725 16.70616814494133 15.435092449188231 29.440622955560684 14.150361925363542 21.824214294552803 14.368334546685217 12.338567912578581 16.914750456809998 14.434517189860346 16.390582889318466 21.332369461655617 12.885578319430349 12.243186935782431 13.292142838239668 21.047039270401001 19.255933567881584 18.623472198843956 16.193984344601631 12.596127077937124 14.022880598902701 21.839419394731522 13.477431595325468 12.527412682771681 27.365661785006523 13.451888442039488 74.244458794593811 42.760435283184052 21.01375412940979
leaf_count=50 79 103 51 101 70 57 218 137 52 51 91 51 67 80 136 329 219 179 82 87 90 63 60 89 116 73 53 73 61 50 50 111 62 86 67 62 119 57 88 58 50 68 58 66 86 52 50 54 86 79 76 65 51 57 89 55 51 112 55 304 173 85
internal_value=0 0.262684 -0.330343 -0.605908 -0.274585 0.599463 -0.360375 0.0381511 -0.145751 0.470629 0.319504 -1.14196 -0.0690007 -0.262416 -0.574319 0.786812 -1.25755 -1.02094 -0.873727 0.136295 0.0188618 -0.177413 -0.291688 -0.429591 0.501237 -0.689172 0.114293 0.471148 0.277674 -1.00899 -0.0663928 -1.16505 -0.359227 0.123626 -0.706739 -0.967421 0.230996 -0.241326 0.0891052 -0.514361 -0.099733 -0.299308 -0.445863 0.483042 0.320108 -0.217539 0.873445 0.484487 0.598597 0.390852 0.705459 -0.909167 -0.0267011 0.794508 0.529581 1.0697 0.813116 0.515771 0.931807 1.01505 0.349914 0.140359
internal_weight=0 782.043 601.871 344.356 301.329 480.714 270.731 257.515 185.295 326.965 221.227 159.061 114.623 160.295 156.108 105.739 139.385 84.8905 74.7388 223.512 165.479 59.2413 81.6759 69.2411 161.986 50.4536 143.921 58.0334 45.4777 30.6187 109.841 72.1769 28.4571 36.7592 47.0794 32.1413 115.464 75.6167 34.2124 41.4043 30.4208 81.3692 64.4544 32.9471 34.2246 27.0359 153.749 30.598 136.764 66.3772 37.8794 30.6285 25.2216 70.3868 35.8623 34.5245 139.833 39.8931 99.9395 87.6963 93.2148 50.4544
internal_count=5600 3173 2427 1386 1212 1961 1088 1041 747 1332 900 639 461 646 627 432 560 341 300 904 669 240 328 278 660 203 582 235 184 123 443 290 115 149 189 129 467 305 138 167 123 327 259 133 138 109 629 124 558 271 155 123 102 287 146 141 572 163 409 359 377 204
shrinkage=0.1


Tree=3
num_leaves=63
num_cat=0
split_feature=27 26 22 24 5 5 27 22 27 26 22 3 0 22 27 27 24 5 0 5 17 26 0 26 17 24 19 18 22 23 17 21 22 22 15 27 3 9 6 3 22 3 3 3 5 17 3 10 19 0 10 9 17 10 7 21 15 7 9 17 0 0
split_gain=97.5141 115.859 50.0525 70.7924 28.0742 27.3141 14.2094 13.2904 15.299 13.8786 12.8139 12.6895 12.1955 11.925 10.4894 9.91604 9.3134 9.07267 10.5363 8.11027 8.00996 7.9191 10.6977 7.77683 11.1381 8.24942 7.62612 7.31111 7.25883 7.16212 7.12905 9.39525 7.03637 10.406 7.41629 7.28441 11.1535 10.2093 6.69914 6.67242 8.80447 6.78877 6.66311 6.57696 6.32312 6.29415 6.08783 6.09664 5.72866 5.71781 5.56392 5.49164 5.02986 4.92235 4.7804 4.72584 4.69909 4.5885 4.56482 4.51819 4.40446 5.00246
threshold=0.90450000000000019 0.81150000000000022 1.0605000000000002 1.0795000000000001 0.89650000000000019 0.82050000000000012 1.0105000000000002 1.0355000000000001 0.84050000000000014 0.89850000000000019 0.74850000000000005 1.8535000000000001 1.5645000000000002 0.78450000000000009 0.78250000000000008 1.1775000000000002 0.73250000000000004 1.6690000000000003 1.1345000000000003 1.3505000000000003 0.73550000000000015 0.84350000000000003 0.77750000000000019 0.76750000000000018 0.92850000000000021 0.71850000000000003 0.75350000000000017 -1.2709999999999997 0.87650000000000017 0.99850000000000005 1.0725000000000002 2.1065000000000005 0.6925 0.99050000000000005 -1.2274999999999998 0.81450000000000011 0.66550000000000009 1.1415000000000002 -0.038499999999999993 0.88750000000000007 0.85550000000000004 1.5835000000000001 1.2105000000000004 0.57250000000000012 0.86950000000000005 0.71550000000000014 0.57250000000000012 0.36350000000000005 -0.69249999999999978 1.6975000000000002 -0.35349999999999993 1.2815000000000003 0.70250000000000001 0.14850000000000002 -0.23649999999999996 0.93450000000000022 1.0000000180025095e-35 0.12750000000000003 0.92250000000000021 0.88750000000000007 0.56650000000000011 0.80950000000000022
decision_type=2 2 2 2 2 2 2 2 2 2 2 2 2 2 2 2 2 2 2 2 2 2 2 2 2 2 2 2 2 2 2 2 2 2 2 2 2 2 2 2 2 2 2 2 2 2 2 2 2 2 2 2 2 2 2 2 2 2 2 2 2 2
left_child=1 5 3 13 7 12 44 8 21 -10 58 17 23 -2 19 39 -15 27 -19 46 -9 -3 45 25 -25 26 48 -8 -11 42 38 51 -6 34 -34 53 -37 -38 -29 43 -41 50 -17 -12 -4 -23 -7 -48 -1 -18 -42 -32 -50 59 -40 60 -47 -46 -5 -36 -27 -62
right_child=2 4 6 10 32 14 11 20 9 28 15 -13 -14 16 -16 29 49 18 -20 -21 -22 22 -24 24 -26 55 -28 30 -30 -31 31 -33 33 -35 35 36 37 -39 54 40 41 -43 -44 -45 57 56 47 -49 52 -51 -52 -53 -54 -55 -56 -57 -58 -59 -60 -61 61 -63
leaf_value=-0.05912413538689 -0.029087663570092417 -0.0051580879372631009 0.0041860880406653731 0.011200615780487391 0.13468949030574676 0.057939411221700689 -0.06884023166586227 0.014100652909155851 -0.1070493888531031 0.057191517163240446 0.0063852412615831161 -0.07338248658914874 0.033045084501245825 -0.051100835325735373 -0.044393374241682278 0.011220363228202076 -0.11221541714230927 0.11667755461317218 -0.0034660252295490635 0.1033914871903209 0.099888748292406515 -0.031277808018919273 0.076870840741428914 -0.058322534422460964 0.046535880516928516 -0.15480935763281486 -0.093308654547409289 -0.010598294279287233 -0.030241391088454903 -0.12146305853913937 -0.030964170380438423 -0.093242764284806587 0.11948913654068623 0.10436459529782603 0.015800520762344984 -0.0373804465178229 0.088650628154696889 -0.017775288155136449 0.096512831958073725 0.073952009982079153 -0.031715451839382992 -0.062573878402079994 -0.072422542554312616 -0.072347833622585192 0.10810878769522421 0.0025154804734518069 -0.037815634964924301 0.044856901193195499 -0.035387241358357815 -0.1671426421428345 0.047878140559312055 0.049011776869464452 0.050089326218326805 0.11199685545649894 0.018522468148098613 -0.050110341663663786 0.08382269192945796 0.038185344826255421 0.09687929380729475 0.095880486744157931 -0.034316619370585638 -0.11058293874444902
leaf_weight=19.165776461362839 19.668246269226074 34.373365819454193 21.344537526369095 12.307752177119257 21.505581349134445 25.326711639761925 17.884113296866417 15.14848057925701 15.087332248687742 16.163067802786827 19.301097422838211 26.079838007688522 17.905257865786552 21.32511493563652 20.838375672698021 16.605801999568939 99.300262108445168 13.573722556233408 15.791268959641455 14.350185260176657 38.658858671784401 18.676829606294632 62.76596511900425 24.827148377895355 17.111802190542221 12.650737658143042 18.18229952454567 30.623255491256714 23.018227145075798 13.42061275243759 22.004176586866379 15.31262284517288 16.674225211143494 74.074005082249641 16.978107914328579 19.631419822573662 27.857525005936623 13.325293287634848 14.784023106098177 17.79407262802124 14.623586684465407 15.666624143719671 22.332355111837387 23.561997279524803 18.349756717681885 14.120095714926721 22.840147018432617 14.636076405644415 12.441847592592241 23.422246664762497 21.988465681672096 14.079583436250685 15.412261411547659 21.699202448129654 16.779177218675613 24.356353208422661 14.313737720251082 19.209082752466202 12.568527951836584 12.043312311172484 12.401649951934813 28.058831676840782
leaf_count=77 79 139 87 50 90 103 72 62 61 66 78 105 72 86 84 67 403 55 64 59 161 76 259 100 69 51 73 124 93 54 89 62 69 308 70 80 115 55 60 72 59 63 90 95 75 58 92 59 50 95 89 57 62 90 68 98 59 78 51 50 50 113
internal_value=0 0.238371 -0.29844 -0.539219 0.545224 -0.247801 0.0481952 0.31654 0.197056 -0.255544 -0.124232 -0.0867744 -0.457518 -1.02126 0.185611 -0.224932 -1.12099 0.0181486 0.520693 0.355646 0.757367 0.36733 0.498381 -0.533943 -0.155385 -0.645223 -0.383119 -0.0941018 0.0582643 -0.584649 -0.000526621 -0.276102 0.80307 0.745253 0.572854 0.479861 0.246471 0.54215 0.227234 -0.0581621 0.131943 -0.0748581 -0.367517 -0.368946 0.47648 0.13822 0.200664 -0.0552846 -0.17045 -1.22699 0.160869 0.0024178 0.119087 0.759696 0.550527 -0.865829 0.434459 0.723472 0.54489 0.490321 -1.03309 -0.872063
internal_weight=0 776.62 599.702 353.887 476.115 300.505 245.815 252.326 198.519 54.2686 190.171 186.912 202.514 163.716 97.9915 165.295 144.048 160.832 29.365 77.1531 53.8073 144.25 109.877 184.609 41.939 142.67 65.2022 131.467 39.1813 52.3588 113.583 51.3964 223.789 202.283 128.209 111.535 60.8142 41.1828 62.1865 112.936 70.0727 52.2787 38.9382 42.8631 58.9034 47.1107 62.8029 37.4762 47.0199 122.723 36.6121 36.0838 27.8541 50.7206 31.5632 77.4676 28.4338 37.5588 24.8763 29.0214 53.1112 40.4605
internal_count=5600 3173 2427 1431 1961 1212 996 1034 811 220 768 756 815 663 397 667 584 651 119 313 223 591 452 743 169 574 262 532 159 211 460 208 927 837 529 460 250 170 252 456 283 211 157 173 240 193 254 151 189 498 148 146 112 210 128 312 117 153 101 120 214 163
shrinkage=0.1


Tree=4
num_leaves=63
num_cat=0
split_feature=25 25 26 27 25 22 26 25 5 9 13 24 27 5 27 9 27 6 5 14 19 2 25 0 5 5 0 19 2 25 9 27 19 2 23 18 0 17 21 24 27 2 5 25 21 18 9 0 22 24 21 23 25 27 19 23 18 0 23 14 19 22
split_gain=157.482 112.554 58.0292 52.7934 25.5886 21.9044 19.3122 23.396 19.1944 18.9692 15.8478 14.7516 14.0061 20.8869 13.1922 12.2515 12.0889 10.5944 10.3009 10.1575 9.63058 10.3079 9.06371 8.96087 10.4626 8.69773 8.3977 7.98456 7.93404 7.68327 9.16485 7.64839 7.58134 7.5767 7.36543 7.77118 7.20443 6.99936 6.96113 6.91482 7.42988 6.80764 8.81776 10.8593 6.77952 6.74331 8.90013 6.73344 9.61955 6.53069 6.07176 7.12613 5.88841 5.75062 5.61427 6.49662 5.47817 5.47643 5.46563 5.14885 5.09649 5.08957
threshold=1.0675000000000001 0.67850000000000021 0.80550000000000022 0.90450000000000019 1.4915000000000003 1.0265000000000002 0.86550000000000005 0.89550000000000007 0.82050000000000012 1.1375000000000002 1.2215000000000003 0.74250000000000005 1.0025000000000002 0.89650000000000019 0.82450000000000012 1.3035000000000003 0.77850000000000008 -1.5384999999999998 0.70450000000000002 0.77350000000000019 1.1165000000000003 0.66500000000000015 0.79550000000000021 1.6975000000000002 0.81250000000000011 0.87650000000000017 1.1945000000000003 -0.62649999999999995 -0.08699999999999998 1.8325000000000002 1.3725000000000003 1.0145000000000002 0.76250000000000007 -0.46749999999999997 0.99450000000000005 -0.030499999999999996 0.72950000000000015 0.68650000000000022 1.0035000000000001 1.2565000000000002 0.88450000000000017 1.3075000000000003 1.0365000000000002 0.53150000000000019 0.91750000000000009 0.16250000000000003 0.87450000000000017 0.87550000000000006 0.88950000000000007 1.5145000000000002 0.76650000000000007 0.99050000000000005 0.97650000000000003 0.73150000000000015 -0.78649999999999987 0.98750000000000016 0.070500000000000021 0.72550000000000014 0.99650000000000005 -0.24549999999999997 0.83800000000000008 0.97350000000000014
decision_type=2 2 2 2 2 2 2 2 2 2 2 2 2 2 2 2 2 2 2 2 2 2 2 2 2 2 2 2 2 2 2 2 2 2 2 2 2 2 2 2 2 2 2 2 2 2 2 2 2 2 2 2 2 2 2 2 2 2 2 2 2 2
left_child=1 9 8 6 5 12 7 16 19 10 11 18 13 32 59 17 -4 -5 36 53 21 33 -10 24 34 38 29 -20 -12 30 50 -26 -2 -7 35 -19 -1 -29 52 40 -15 42 47 -44 -25 46 -33 60 -49 -14 -6 -52 -8 -3 -31 -56 -16 -57 -28 -11 -13 -50
right_child=4 2 3 15 26 20 25 -9 22 14 28 41 49 39 56 -17 -18 23 27 -21 -22 -23 -24 44 31 -27 58 37 -30 54 -32 45 -34 -35 -36 -37 -38 -39 -40 -41 -42 -43 43 -45 -46 -47 -48 48 61 -51 51 -53 -54 -55 55 57 -58 -59 -60 -61 -62 -63
leaf_value=-0.095603761479683094 -0.096430110501832589 -0.044839879710768624 0.12026521776919896 -0.072752601653251953 -0.0053246573671369441 0.008615363718309052 0.10658381906526496 -0.034456405598494708 0.085405721603455845 0.12574496212193145 -0.027152145828587673 -0.11741747906759809 -0.12806918970430378 0.024395898101360239 -0.052248268211558313 0.067482639317810955 0.019880479951013365 0.078169414911866089 0.078795983890687343 0.026414988025599287 0.092010567617517261 0.049543424364359476 -0.0079114599762934897 -0.08658208876316649 0.091505074032683931 0.12617013041018074 -0.1543474603267006 -0.064556515606254014 0.068274503447635124 -0.1471312334952882 0.018182142423310337 0.05956001696199114 -0.013338422375095263 -0.076875256526851496 -0.057234714965865068 -0.019672291050182152 -0.011313398181820091 0.03146736938880984 0.019251861255017745 0.078951469760391371 -0.070119130944292077 -0.12020166393433887 -0.072122029349103958 0.056408951251434629 0.016438699969690013 0.068775213149739972 -0.053828770878983058 -0.0043937720048098121 -0.12626859904825169 -0.043658004797249295 -0.12123388275388687 -0.036456052590131981 0.031814921763328348 -0.11323256205230091 -0.024849405766653496 -0.14986297441045077 0.025288227634173904 -0.062273909293342006 -0.082821962030066032 0.03801119082941188 -0.045338150672790227 -0.046217543157051004
leaf_weight=18.115575984120369 42.160305097699165 43.754474088549614 34.113012626767159 13.334310322999952 12.363477721810339 21.259259030222893 73.059220090508461 23.838090300559998 20.83189931511879 12.362669885158541 15.368167713284491 33.633151531219482 29.064460292458534 24.641041159629822 18.475803583860397 53.932916820049286 18.503456965088844 14.305589765310286 15.5250898450613 15.588632866740225 12.753599524497984 23.744567096233368 20.801600769162178 12.558975189924242 31.192120224237442 107.99572643637657 22.204671591520309 13.119632974267008 20.118759259581566 15.433003991842268 16.746725112199783 12.314258560538294 14.84786483645439 20.233143225312233 17.729590117931366 18.767645925283432 23.032479912042618 18.013793259859085 13.798560157418249 12.312849149107931 12.555042520165442 18.521960824728012 12.352375581860544 14.050030916929243 12.999707892537115 23.054952323436737 15.809758394956587 28.931945607066154 15.056247755885126 13.387287825345991 23.431847602128983 17.187687784433365 12.307503819465635 17.098315760493279 15.471077397465704 14.033407911658289 17.979718431830406 14.528579339385031 20.59064793586731 14.576135680079458 13.848716601729391 16.809458985924721
leaf_count=73 170 177 143 54 50 87 310 98 85 51 62 136 119 101 75 221 77 58 63 63 52 97 85 51 128 464 91 53 82 63 68 50 60 82 72 76 93 73 57 50 51 75 50 57 53 94 64 117 61 54 95 70 50 69 63 57 73 59 84 60 56 68
internal_value=0 0.222181 0.473159 0.619514 -0.524477 -0.30401 0.906828 0.477289 -0.158515 -0.241308 -0.354427 -0.446293 -0.528794 -0.335219 0.252065 0.258952 0.849633 0.1286 -0.1195 -0.456069 0.125346 -0.0300266 0.387811 0.200519 0.304607 1.06535 -0.815404 0.20215 0.269485 -0.688229 -0.463026 0.524731 -0.747888 -0.330728 -0.0522985 0.226484 -0.484225 -0.0899712 0.851522 0.139956 -0.0750639 -0.63359 -0.555417 -0.0372432 -0.341835 0.286842 -0.0418085 -0.681767 -0.46139 -1.0145 -0.666848 -0.853611 0.958042 -0.640567 -0.952302 -0.770395 -0.140076 -1.05309 -1.19934 0.782737 -0.963946 -0.840409
internal_weight=0 967.582 627.69 509.615 398.951 226.959 283.616 76.4546 118.075 339.892 276.497 241.01 148.969 106.517 63.3943 226 52.6165 172.067 87.8066 76.4414 77.9906 65.237 41.6335 158.733 133.174 207.161 171.991 46.6585 35.4869 129.196 69.7297 82.3711 57.0082 41.4924 50.8028 33.0732 41.1481 31.1334 99.1653 49.5089 37.1961 153.204 134.682 26.4024 25.5587 51.179 28.124 108.28 60.7977 42.4517 52.983 40.6195 85.3667 60.8528 59.4661 44.0331 36.4555 28.562 42.7953 26.9388 47.4819 31.8657
internal_count=5600 3977 2599 2120 1623 923 1199 318 479 1378 1119 975 605 432 259 921 220 700 355 309 318 266 170 646 542 881 700 189 144 525 283 336 230 169 206 134 166 126 417 202 152 620 545 107 104 208 114 438 246 173 215 165 360 246 242 179 148 116 175 111 192 129
shrinkage=0.1


Tree=5
num_leaves=63
num_cat=0
split_feature=25 25 25 26 5 21 5 5 3 3 25 10 21 1 21 14 0 26 5 0 14 7 21 21 3 3 4 10 26 15 15 5 0 24 15 3 2 26 7 23 25 6 0 1 4 19 10 4 24 10 11 3 11 26 7 10 4 0 4 5 14 26
split_gain=141.516 70.4586 52.6308 47.4157 21.3741 19.8654 18.5899 17.9628 16.2143 15.0698 13.4601 15.3247 15.8873 12.0635 13.2913 11.7323 11.7258 11.4699 11.2019 9.93873 10.964 9.9117 9.70848 8.93312 8.70298 8.28519 9.5417 8.19388 7.38868 7.38203 7.37727 7.08755 6.94753 6.8223 6.78105 6.58733 6.19978 6.1463 5.83854 8.54628 6.10529 5.57081 6.86619 5.53334 5.51223 5.30348 5.28404 7.29209 5.22141 6.15654 5.19623 5.08445 5.07754 4.78328 4.7489 4.68675 4.62562 4.62311 4.53937 4.31948 4.30164 4.05647
threshold=1.2450000000000003 0.6695000000000001 0.96550000000000014 0.77650000000000008 0.88650000000000018 1.0625000000000002 0.82050000000000012 1.3365000000000002 1.5555000000000003 1.7675000000000003 1.5695000000000001 1.1305000000000003 1.0925000000000002 0.89550000000000007 0.85150000000000003 0.75200000000000011 1.3915000000000002 0.89050000000000018 1.0855000000000004 1.5955000000000001 0.84750000000000003 0.47950000000000004 0.84550000000000003 0.58250000000000013 1.8335000000000001 1.2785000000000002 -1.1744999999999999 -0.90449999999999997 1.0375000000000003 0.12700000000000003 0.85850000000000015 0.87650000000000017 1.0265000000000002 1.5530000000000002 0.74650000000000005 0.77350000000000019 0.013500000000000002 0.71150000000000013 -0.50249999999999984 0.98750000000000016 1.7930000000000004 0.18050000000000002 0.77350000000000019 -0.41049999999999992 -0.39849999999999997 -0.32649999999999996 -0.75949999999999995 -0.48049999999999993 0.84050000000000014 -1.3474999999999997 -0.17549999999999996 1.1165000000000003 -1.0064999999999997 1.0405000000000002 -0.5834999999999998 -0.30549999999999994 0.22850000000000004 0.74950000000000017 0.12100000000000001 1.0405000000000002 -0.43749999999999994 0.71950000000000014
decision_type=2 2 2 2 2 2 2 2 2 2 2 2 2 2 2 2 2 2 2 2 2 2 2 2 2 2 2 2 2 2 2 2 2 2 2 2 2 2 2 2 2 2 2 2 2 2 2 2 2 2 2 2 2 2 2 2 2 2 2 2 2 2
left_child=1 7 3 6 17 8 15 13 16 19 11 12 21 14 23 32 48 57 50 20 -6 59 -23 -1 33 26 -16 -19 31 -8 37 -18 35 38 44 -3 -14 -15 39 -12 -40 42 -29 -36 -28 -39 -10 -48 -5 -50 58 -20 -42 -43 -52 -9 -46 -4 -7 -2 -27 -25
right_child=10 2 4 5 9 18 29 55 46 -11 24 -13 36 30 25 -17 28 27 51 -21 -22 22 -24 61 -26 60 34 41 -30 -31 -32 -33 -34 -35 43 -37 -38 45 40 -41 52 53 -44 -45 56 -47 47 -49 49 -51 54 -53 -54 -55 -56 -57 -58 -59 -60 -61 -62 -63
leaf_value=0.011730604480365683 -0.09725215244031174 -0.0084032817114696734 -0.11186146084259688 0.11511022037497261 0.072838380044414341 0.0037191320795334814 0.10350588841223365 -0.0011301000209391289 -0.033319014377664248 -0.06603489861935688 0.0015658780301395473 -0.1340117642439306 -0.012582137830458666 -0.15055934815705072 0.081484052081664954 0.027836248634563101 0.025679287433791748 -0.087071762501264222 0.10545354076170328 -0.024457825493504337 -0.015003778521149031 0.052479060872464525 -0.05301809850141323 -0.10104559460884416 -0.16465148527582338 0.0024339733478868008 -0.065993454524452572 -0.077359675462242178 -0.018225961522278192 -0.0045136979202998672 -0.0096619723472693552 0.10383927033157261 -0.13726457886111848 -0.025282487422509964 -0.011191556501825663 -0.10475466972739243 0.083313746927432777 -0.019369534330938631 -0.06797271737848401 -0.091723687534169221 -0.073820799054646155 0.067883419718640356 0.017254437524637466 0.078556600798704065 0.049439054726563653 -0.10664059583949972 -0.011990154305854218 0.077043811665012951 0.017702293657436759 0.089285376081835399 0.068947860918419202 0.02903467275249081 -0.14935812131783177 -0.012037141208386875 -0.010676189492808318 0.070077365788531826 -0.021623306942979103 -0.04663405290371278 -0.081714685424378236 -0.042219792413581536 -0.07038772732942232 -0.050808757113788863
leaf_weight=16.734187409281731 33.988513007760048 16.285028338432316 21.001283511519432 76.606575280427933 62.807539030909538 12.137610092759134 13.06745156645775 15.787846580147741 12.802127182483671 16.433759987354279 15.382882744073866 15.855246484279631 12.763200268149378 13.545979380607603 15.918857097625731 13.880123630166052 23.780988752841949 12.508583396673201 16.953065231442451 20.835926443338394 18.363325566053391 15.421378538012503 20.082963198423386 25.82907147705555 12.577407285571097 12.347631633281706 18.715122476220131 14.771629482507707 14.378197908401487 12.264430850744246 13.29863967001438 22.653803437948227 13.514822438359259 20.986917495727539 12.338250964879991 12.574662506580351 14.290216177701948 12.328080266714094 27.64582522213459 27.154901683330536 12.411788552999495 16.770898178219799 15.954509153962134 15.49943497776985 12.7987814694643 16.001841858029369 15.477626502513884 22.676696345210075 13.151160329580305 139.04658870398998 12.492232143878939 17.898494675755501 31.440059095621109 13.530573233962057 18.707424849271774 22.297472417354584 32.217506125569344 22.515833139419556 12.754547864198683 24.574651822447777 23.645502462983131 42.554729402065277
leaf_count=68 138 66 85 331 261 50 54 65 53 67 63 65 52 55 65 56 101 51 71 86 76 63 82 105 53 50 76 60 59 50 54 99 55 85 50 51 58 50 113 112 51 69 65 63 52 65 64 94 56 594 52 73 130 55 77 92 131 91 52 101 96 173
internal_value=0 0.152005 0.32023 0.499861 -0.0711591 0.632042 -0.199253 -0.239263 0.742916 0.22834 -0.641398 -0.415639 -0.294621 -0.325809 -0.224515 -0.519573 0.834439 -0.374208 0.216831 0.371512 0.529658 -0.488846 -0.0719521 -0.537579 -0.850908 -0.0387948 0.100259 -0.133402 0.444145 0.512082 -0.745489 0.638106 -0.780943 -0.776797 -0.0239673 -0.503852 0.380722 -0.951552 -0.873228 -0.579875 -1.04776 0.0177222 -0.282314 0.387783 -0.203819 -0.686636 0.222732 0.409264 0.938174 0.831 -0.0598133 0.662076 -1.27978 0.321963 0.21205 0.405591 -0.0141925 -0.781127 -0.400565 -0.741591 -0.454059 -0.697836
internal_weight=0 1070.46 748.598 513.104 235.494 431.517 81.5865 321.859 340.574 118.441 284.576 136.976 121.121 283.774 228.599 56.2546 289.617 117.053 90.9434 102.007 81.1709 94.0675 35.5043 85.118 147.6 143.481 107.488 73.5362 60.813 25.3319 55.1745 46.4348 42.3745 135.022 91.5691 28.8597 27.0534 41.8759 114.035 42.5378 71.4977 61.0276 30.7261 27.8377 63.7314 28.3299 50.9565 38.1543 228.804 152.198 56.0918 34.8516 43.8518 30.3015 31.1997 38.0853 45.0163 43.5171 24.8922 58.5632 35.9931 68.3838
internal_count=5600 4434 3124 2158 966 1826 332 1310 1451 490 1166 559 494 1153 929 228 1240 476 375 423 337 384 145 346 607 583 437 300 259 104 224 200 172 554 372 117 110 170 469 175 294 249 125 113 259 115 211 158 981 650 231 144 181 124 129 157 183 176 102 239 146 278
shrinkage=0.1


Tree=6
num_leaves=63
num_cat=0
split_feature=27 26 22 24 5 5 27 5 24 10 0 27 26 22 5 26 27 10 24 18 9 26 13 5 0 23 5 22 22 0 15 17 26 22 26 24 22 0 23 7 0 23 5 18 9 0 2 9 17 19 22 9 8 15 12 18 13 22 18 15 26 17
split_gain=81.2512 72.1535 46.6342 61.1484 23.9291 20.9232 11.5444 11.3075 11.1957 11.145 11.0122 10.7209 28.414 11.6045 10.1075 10.1598 9.82587 10.2178 9.81601 9.57496 9.08437 8.93728 9.3353 8.84106 8.7894 8.47313 8.29427 10.5556 15.0912 8.5532 8.38348 8.5098 8.1932 8.04955 7.92984 7.6192 7.47317 7.39193 7.26963 7.86273 7.26108 12.3276 6.55201 6.46775 6.34146 11.1766 6.78062 5.61849 7.74396 6.09966 5.59653 5.49649 5.46641 5.41034 5.29818 5.2437 6.07556 5.21012 7.38197 4.97018 4.81727 4.59147
threshold=0.90450000000000019 0.78050000000000008 1.0445000000000002 1.0755000000000001 1.0525000000000002 0.88150000000000006 1.0835000000000001 1.0315000000000001 0.6625000000000002 -1.4604999999999999 1.7985000000000002 0.82250000000000012 0.88850000000000018 0.9275000000000001 2.0995000000000004 1.0925000000000002 1.0885000000000002 -0.32449999999999996 0.75750000000000017 -0.63249999999999995 1.1155000000000002 1.0505000000000002 0.99750000000000016 0.91150000000000009 1.2835000000000003 0.99550000000000016 1.3260000000000003 0.77950000000000019 0.95150000000000012 0.57150000000000001 0.71750000000000014 0.62350000000000005 0.86750000000000005 1.0625000000000002 0.65150000000000008 0.82250000000000012 0.86050000000000015 0.68150000000000011 1.2235000000000003 1.5105000000000002 0.99550000000000016 0.99850000000000005 1.4790000000000003 -0.11949999999999998 1.2615000000000003 0.95250000000000001 -0.29449999999999993 0.99050000000000005 0.92850000000000021 -1.0084999999999997 0.9255000000000001 0.70550000000000013 1.6300000000000001 -0.12649999999999997 1.0000000180025095e-35 -0.57549999999999979 0.65950000000000009 0.97750000000000015 0.75050000000000006 -0.18399999999999997 1.0775000000000003 0.96550000000000014
decision_type=2 2 2 2 2 2 2 2 2 2 2 2 2 2 2 2 2 2 2 2 2 2 2 2 2 2 2 2 2 2 2 2 2 2 2 2 2 2 2 2 2 2 2 2 2 2 2 2 2 2 2 2 2 2 2 2 2 2 2 2 2 2
left_child=1 4 3 16 8 9 7 21 34 -3 14 18 53 36 15 20 17 -2 -11 52 23 -5 -23 -4 -8 33 27 -7 29 -29 31 -31 40 -15 -1 -21 -14 -34 39 47 43 -42 -12 -20 45 59 -46 48 49 -10 -39 -36 61 -13 -50 -51 -57 58 -19 -37 -9 -17
right_child=2 5 10 6 -6 26 24 60 38 11 42 12 13 25 -16 19 -18 57 32 35 -22 22 -24 -25 -26 -27 -28 28 -30 30 -32 -33 37 -35 51 44 -38 50 -40 -41 41 -43 -44 -45 46 -47 -48 -49 54 55 -52 -53 -54 -55 -56 56 -58 -59 -60 -61 -62 -63
leaf_value=-0.038773435659169991 -0.12333066261941922 -0.052781176410559308 -0.029922514806314662 -0.074941093228167457 0.057336856629773197 0.10307601536193978 -0.021626245726108214 0.088653136520512987 -0.027127388766176805 0.090437021475011051 -0.014963689551221916 -0.044209507103117746 0.030996007474668182 -0.014739465773731322 0.083642578892135486 0.025018327844234939 -0.13395737066939259 -0.095089369442598881 -0.065454100423344583 0.081734880942459981 0.1029392169401217 0.054287749701543354 -0.048709244376216529 0.063804914450549921 -0.093655720940239828 0.12425768188367928 0.10243423334625167 -0.054954497628812139 0.074121018236676675 0.070818203983069816 0.086092295733970134 -0.026268676999672131 0.0097998897148882103 0.094110964931213167 0.070370137164273747 -0.011757384694624128 -0.072959266574686155 0.053464655605929848 0.020020692922075901 -0.1363797384371031 -0.015694937754028509 0.11360231148371336 -0.10793086671174429 0.015552748637631175 -0.017865320305849235 0.035230801649272038 0.065672191319551848 0.012445163264122568 0.014506105188889219 -0.14152128239843495 0.13356009425619242 -0.011779515397036913 -0.089302255767673269 -0.13535310459946107 -0.060829873078347113 -0.018609707434694256 -0.10512194669360915 0.0028750626688989014 -0.0073532337831376362 -0.085953876518740896 0.020176702717314657 -0.058092106603262472
leaf_weight=30.516342237591743 35.907852679491043 18.050336793065071 21.032125383615494 19.935056924819946 30.788935303688049 36.329790323972702 59.858693867921829 16.846887305378914 17.130085796117775 35.931962311267853 18.650002926588062 13.935699746012689 15.498382017016413 15.408353462815287 17.398513197898865 12.660647332668306 55.801172390580177 34.471515372395515 17.29959836602211 12.146231129765509 16.535887330770493 19.864560306072235 15.79870794713497 19.298441991209984 23.628148168325424 16.272030726075172 44.934002533555031 15.508441537618635 77.332153499126434 13.131838798522947 17.714794501662254 28.890079542994499 19.169425591826439 12.151598379015921 17.477712467312813 15.181537330150602 12.486935511231421 21.02602031826973 12.576748386025427 12.097436055541037 15.457435041666033 14.100595980882643 12.772552296519278 22.907310709357262 17.404342651367188 21.018375083804131 21.996553122997284 12.228402256965635 19.046725407242775 16.990730956196778 14.909901723265646 15.252323910593985 18.557715505361557 12.227332904934881 18.308524340391159 12.708648309111608 22.471149161458015 12.06160458922386 13.286106660962103 22.274951070547104 26.329889580607414 13.995083913207052
leaf_count=124 149 75 86 81 128 161 245 70 70 152 76 57 65 64 72 52 238 143 71 50 69 81 64 80 97 70 198 65 336 56 77 122 80 53 71 62 51 90 51 50 64 58 52 95 71 86 91 50 78 70 65 62 76 50 75 52 92 50 55 91 108 57
internal_value=0 0.206137 -0.289048 -0.536629 -0.249117 0.417947 -0.146369 0.0850097 -0.371568 0.231912 0.0276749 0.284904 0.0241543 0.349186 0.103692 0.0435861 -1.00604 -0.811623 0.443784 -0.0888793 0.405194 -0.213153 0.0866043 0.149267 -0.420118 0.670381 0.638184 0.546331 0.430985 0.112156 0.283942 0.0407095 0.311249 0.332543 -0.0210256 0.0703295 -0.153884 0.599465 -0.526004 -0.595734 0.0835948 0.45986 -0.527527 -0.193016 -0.0223745 -0.231316 0.287716 -0.517578 -0.591188 -0.78902 0.866964 0.320881 -0.476297 -0.868056 -0.224175 -0.959021 -0.738695 -0.558498 -0.706813 -0.558812 0.468951 -0.186172
internal_weight=0 748.268 594.713 333.79 237.594 510.674 182.262 98.7751 206.805 276.833 260.923 258.783 97.9803 71.8173 229.5 212.102 151.528 95.7271 160.802 155.235 56.8665 55.5983 35.6633 40.3306 83.4868 43.832 233.841 188.907 152.577 75.2452 59.7367 42.0219 124.87 27.56 63.2464 110.022 27.9853 55.1053 143.558 130.982 69.7649 29.558 31.4226 40.2069 97.8758 58.4749 39.4009 118.884 106.656 69.3006 35.9359 32.73 45.2134 26.163 37.3552 52.1705 35.1798 59.8192 47.7576 37.4565 43.1768 26.6557
internal_count=5600 3148 2452 1381 973 2175 746 404 845 1160 1071 1085 410 303 943 871 635 397 675 636 235 226 145 166 342 187 1015 817 656 320 255 178 523 117 257 451 116 235 588 537 288 122 128 166 401 239 162 487 437 284 155 133 185 107 153 214 144 248 198 153 178 109
shrinkage=0.1


Tree=7
num_leaves=63
num_cat=0
split_feature=25 25 25 26 3 9 5 5 25 14 0 5 10 3 14 13 2 20 13 23 13 3 0 2 3 26 26 24 23 10 14 25 26 3 5 0 9 6 2 23 14 20 1 5 9 9 5 26 18 7 23 17 15 2 5 16 18 0 5 25 3 2
split_gain=109.21 57.5096 35.6251 35.4587 15.5129 14.0372 13.3282 13.2609 13.0668 12.62 12.3972 11.9651 13.3407 9.45012 9.4448 9.04387 9.04011 8.64106 8.42187 8.66705 7.8212 7.75733 7.46513 7.33041 8.41346 7.32126 8.66255 7.31431 7.13329 8.91391 11.3713 7.12898 10.5679 7.03957 9.78881 8.38599 6.76075 6.5781 7.91678 7.62096 7.06308 6.56613 7.33676 6.55122 6.53516 10.6251 9.14023 6.44779 6.24421 6.19873 6.28085 6.22557 6.15317 5.97607 5.96774 8.75611 9.56495 5.86908 5.71486 5.61937 5.36888 5.31894
threshold=1.1965000000000001 0.6695000000000001 0.96550000000000014 0.77650000000000008 1.5465000000000002 1.4075000000000002 0.82050000000000012 0.72850000000000004 1.5695000000000001 -0.39849999999999997 1.3185000000000002 0.81250000000000011 1.1305000000000003 1.7525000000000002 0.75200000000000011 1.1325000000000003 0.74800000000000011 2.3265000000000007 0.73250000000000004 1.0385000000000002 1.2215000000000003 1.8335000000000001 1.1195000000000002 -0.033499999999999995 0.73050000000000004 0.94950000000000012 0.79050000000000009 0.82050000000000012 0.98750000000000016 0.72200000000000009 0.61450000000000016 0.7915000000000002 0.94350000000000012 0.78650000000000009 0.77050000000000007 1.1495000000000002 0.96650000000000003 0.16750000000000004 0.20900000000000002 0.99150000000000016 -0.37849999999999995 2.3265000000000007 -0.11649999999999999 0.88650000000000018 0.6605000000000002 1.3035000000000003 0.73850000000000005 0.64350000000000007 0.058500000000000003 -0.72549999999999992 0.98850000000000005 1.3195000000000003 0.12700000000000003 -0.08699999999999998 1.1275000000000002 1.0000000180025095e-35 0.79950000000000021 1.0265000000000002 0.88150000000000006 1.7930000000000004 0.77350000000000019 0.43550000000000005
decision_type=2 2 2 2 2 2 2 2 2 2 2 2 2 2 2 2 2 2 2 2 2 2 2 2 2 2 2 2 2 2 2 2 2 2 2 2 2 2 2 2 2 2 2 2 2 2 2 2 2 2 2 2 2 2 2 2 2 2 2 2 2 2
left_child=1 5 3 6 10 20 14 9 11 -4 31 36 13 15 57 23 -11 28 -6 -20 27 49 -17 -13 -25 26 -22 33 43 30 61 32 -5 34 47 -36 -2 38 40 -39 -29 42 -35 -9 -12 46 -46 -1 -48 50 -10 59 -8 -7 55 56 -33 60 -34 -51 -3 -30
right_child=8 2 7 4 18 53 52 17 21 16 44 12 -14 -15 -16 22 -18 -19 19 -21 25 -23 -24 24 -26 -27 -28 37 29 -31 -32 54 58 41 35 -37 -38 39 -40 -41 -42 -43 -44 -45 45 -47 48 -49 -50 51 -52 -53 -54 -55 -56 -57 -58 -59 -60 -61 -62 -63
leaf_value=-0.086132418546129574 -0.11826058524891619 -0.0037798871931335153 0.017521441031765284 0.078606526636391963 0.064882826739390539 0.00060946886838889134 0.093373613704884506 -1.156485356933472e-05 0.0082772713693316149 -0.11625627055695631 0.073530349265448727 -0.062731199913389102 -0.11691747544794549 -0.088746675208166037 0.028212305269301848 0.072270416592913861 -0.011380430465572014 -0.030253687322908441 -0.040585731915983365 0.051516667566087582 -0.01423268684700929 -0.1529357526026979 -0.01979603817178608 -0.052463281671859131 0.054642747611575837 -0.050794650835493851 0.094973326918865342 0.0026340230314793531 0.038133017135979164 0.074617681045259496 -0.098636330818001938 0.07419517675190429 -0.033900078677546283 0.030181496351332729 0.10463936852297347 -0.0040369856854823825 -0.040804529219929879 -0.060758189749781713 -0.10775317946995491 0.014886852845548993 -0.079759940288695083 -0.082220729046716873 -0.057498482117248152 0.086917213049136813 -0.069387683943759701 0.090412519386387724 -0.02117426063451135 0.0040381951461745088 0.071697744836144106 -0.059719618000465657 -0.070795603512780497 -0.041045348846083213 -0.005983007755926445 0.096336368855764895 0.11972972346757216 0.10754341741334386 -0.0094669544464338548 -0.12249161670342901 0.049906907170195275 -0.12088135724215454 -0.091424636252406127 -0.035010336976520971
leaf_weight=12.475406676530836 21.629405632615089 16.182970553636554 20.336571291089058 56.99079218506813 21.3554817289114 12.759038135409357 12.730120673775675 12.75163848698139 17.910250648856163 24.239754557609558 26.062776446342468 24.194234803318974 12.092963114380835 12.232019841670988 13.856215700507162 26.104409441351891 12.43568781018257 37.561676859855652 31.705844879150391 15.075049623847006 14.436591073870661 11.852083534002302 13.291398108005522 12.369725123047834 18.01578114926815 12.506565287709234 14.61901533603668 19.454112738370895 27.297333523631096 14.915167912840841 11.994956240057943 61.134267508983612 16.594858199357986 18.560766085982323 14.277008801698686 14.125479787588118 23.526130869984627 27.275016307830811 31.596272960305214 26.027388140559196 22.364779114723206 23.339924797415733 19.643539801239967 27.081652134656906 16.460376396775246 13.763198494911192 14.909278944134714 21.765836670994759 14.072834074497221 23.243897184729576 22.875423535704613 25.51424752175808 12.213066041469572 13.33988596498966 42.904056668281555 54.827626571059227 17.599539712071419 13.107114419341086 15.963910341262816 42.468254283070564 12.302696153521536 15.637374907732008
leaf_count=51 89 66 84 252 91 53 54 52 74 100 116 100 50 51 56 107 51 157 131 62 59 53 56 51 74 51 61 80 114 63 50 270 69 76 59 58 97 112 130 106 92 96 81 114 69 59 64 89 61 96 97 107 50 56 194 243 77 55 68 180 51 65
internal_value=0 0.145232 0.304749 0.448546 0.565157 -0.207315 -0.159835 -0.0471295 -0.534586 -0.456609 0.649857 -0.341138 -0.173983 -0.0606689 -0.432927 0.0469485 -0.806956 0.111423 0.12848 -0.109059 -0.270021 -0.754379 0.412089 -0.216611 0.110406 0.131773 0.407131 -0.336578 0.253193 0.0605996 -0.125557 0.756216 0.526411 -0.164109 0.071878 0.505911 -0.779058 -0.505603 -0.699742 -0.23821 -0.414303 -0.404312 -0.14901 0.590891 0.318045 0.134365 -0.0987732 -0.288144 0.239216 -0.684802 -0.360723 -0.829692 0.447251 0.495381 0.872833 0.768605 0.55494 -0.671138 0.0719138 -0.99247 -0.416328 0.114933
internal_weight=0 1022.63 704.064 499.812 419.42 318.567 80.3922 204.252 307.32 57.012 351.284 163.456 118.301 106.208 55.449 93.9755 36.6754 147.24 68.1364 46.7809 292.468 143.864 39.3958 54.5797 30.3855 41.5622 29.0556 250.906 109.678 69.8448 54.9297 266.015 89.5496 124.188 62.6437 28.4025 45.1555 126.718 73.4152 53.3024 41.8189 61.5442 38.2043 39.8333 85.2685 59.2057 45.4425 34.2412 28.9821 132.012 40.7857 91.2264 24.9432 26.0989 176.465 133.561 78.7338 41.5928 32.5588 65.7122 28.4857 42.9347
internal_count=5600 4318 3008 2158 1826 1310 332 850 1282 235 1542 675 489 439 228 388 151 615 284 193 1201 607 163 225 125 171 120 1030 458 292 229 1173 389 510 257 117 186 520 302 218 172 253 157 166 369 253 194 140 125 554 171 383 104 109 784 590 347 172 137 276 117 179
shrinkage=0.1


Tree=8
num_leaves=63
num_cat=0
split_feature=25 25 5 27 0 26 25 27 3 27 13 22 26 25 21 9 25 22 0 5 8 25 9 27 10 22 25 5 7 22 26 6 22 13 27 9 26 9 15 1 15 19 26 25 22 27 10 13 27 13 8 16 12 13 21 1 0 26 9 7 0 6
split_gain=90.6775 45.4199 34.4795 31.3155 24.0299 21.3209 27.6814 24.3079 15.9076 14.6935 15.4497 11.8772 11.2333 10.8981 10.8776 9.973 10.1942 9.45483 8.96421 9.7251 8.95348 8.91923 8.73012 8.55076 7.90586 7.76775 7.46878 10.0852 7.29121 7.21064 6.69542 6.66377 6.19126 8.99585 5.89328 5.83909 6.12807 7.73431 5.796 6.79122 6.06953 5.77791 5.73892 9.85578 6.29234 6.66817 5.71914 5.85891 5.60809 5.43927 5.1696 4.85688 6.99858 4.82654 4.68468 4.67123 4.62871 4.58553 4.48027 4.41249 4.34351 4.03228
threshold=1.2450000000000003 0.62350000000000005 0.88150000000000006 0.95050000000000001 1.7460000000000002 0.77650000000000008 0.96550000000000014 0.81850000000000012 2.0965000000000003 0.85250000000000015 1.3005000000000002 0.99250000000000005 0.87350000000000005 0.94550000000000012 0.95750000000000013 1.3115000000000003 0.78850000000000009 0.75750000000000017 1.2775000000000003 0.93150000000000011 1.6300000000000001 1.5035000000000003 1.0415000000000003 1.0835000000000001 0.55650000000000011 0.94650000000000001 1.0335000000000003 1.1815000000000002 -0.72549999999999992 0.99250000000000005 1.0035000000000001 0.29550000000000004 0.87650000000000017 0.84050000000000014 0.88050000000000017 1.0615000000000003 0.86550000000000005 0.65150000000000008 0.59650000000000014 0.17550000000000002 1.0000000180025095e-35 0.93750000000000011 0.81150000000000022 0.79550000000000021 0.99050000000000005 0.85950000000000004 -0.90449999999999997 1.0675000000000001 0.74150000000000016 0.88150000000000006 1.6300000000000001 1.9110000000000003 1.0000000180025095e-35 0.83250000000000013 0.75550000000000017 -0.33949999999999997 0.89350000000000007 0.89850000000000019 0.57950000000000002 0.23450000000000001 0.88350000000000006 -0.44449999999999995
decision_type=2 2 2 2 2 2 2 2 2 2 2 2 2 2 2 2 2 2 2 2 2 2 2 2 2 2 2 2 2 2 2 2 2 2 2 2 2 2 2 2 2 2 2 2 2 2 2 2 2 2 2 2 2 2 2 2 2 2 2 2 2 2
left_child=1 9 5 26 8 29 7 35 13 10 18 17 -9 -5 20 16 60 -2 19 38 30 24 46 32 -13 -16 42 -28 -23 51 -11 61 33 -19 -18 36 37 -7 40 -40 41 -1 43 -4 45 -44 -8 57 -39 -47 56 52 -3 -38 -34 -36 -30 -48 -20 -56 -14 -15
right_child=11 2 3 4 -6 6 22 12 -10 14 -12 21 15 31 25 -17 34 23 58 -21 -22 28 -24 -25 -26 -27 27 -29 50 -31 -32 -33 54 -35 55 -37 53 48 39 -41 -42 -43 44 -45 -46 49 47 -49 -50 -51 -52 -53 -54 -55 59 -57 -58 -59 -60 -61 -62 -63
leaf_value=-0.019329768772242368 0.010187448866390818 0.019853878885848192 0.090129173693816123 0.07359954978473722 -0.070161397709677317 0.091440282085416227 -0.097963250889648912 -0.062510594520051407 -0.061588585194840832 -0.14297657138722139 0.094794623649330945 0.033633136395241667 -0.0061300193493081931 0.0055559435904325915 -0.083405418086829247 0.096829698093540958 0.079924847398714541 -0.089678897827384252 -0.021303439991104196 0.030100573410854561 -0.012135398836075855 -0.0030589324342862579 0.023140703680370737 -0.11430466078032918 -0.057886380050854794 0.0077790432620557853 -0.01404313019310028 0.10296635655251107 0.0097412359495538305 0.013074727500206253 -0.056058262329828135 -0.033607564563365347 -0.02445537582100895 0.017112773481378588 0.054272779236179639 0.13271108549932417 0.063104460852598493 0.056710572098043824 -0.049290813485799605 0.043847994863186364 -0.11293432391789576 -0.099522711511378481 0.091109015804571536 -0.022897350744284731 0.11810447553010484 -0.010623654825545651 -0.10016381700903898 0.0074939785695731778 -0.033596792371448879 0.079955498629055932 -0.09515469014912481 -0.086966250523056954 -0.06898815221819872 0.13910034533322987 -0.067913884910729513 -0.011951780759984652 -0.077720158042879725 -0.026777259714465863 0.049112630969258372 -0.12932720942219844 -0.07945895803093056 0.076703115784523448
leaf_weight=31.753060400485992 13.117607697844504 15.245274826884268 18.268024355173115 61.145302072167397 28.161695167422295 17.847081512212753 15.612806648015974 19.211958542466164 15.989346548914908 23.871475994586945 14.043882936239241 31.630597472190857 19.750158399343491 16.54831732809544 13.237348541617392 14.76549595594406 18.329518884420395 13.282133251428602 13.551909521222113 22.440258786082268 12.167990475893019 23.977102965116501 25.980841875076294 45.202094987034798 13.453611865639685 31.749778345227242 20.355438172817234 11.543530613183973 12.104805901646616 19.711916208267212 14.095566496253012 20.188033208250999 11.966820135712622 19.422895923256874 16.995908573269844 14.652943328022955 19.2158372849226 12.510769382119181 17.960479781031612 13.877676114439963 16.591834604740143 12.529965281486509 65.945569440722466 13.354905664920805 49.917076930403709 14.149767011404039 14.14955762028694 24.587249547243118 15.269200474023817 12.473943650722502 32.177603796124458 28.42916776239872 21.193329110741615 14.788926512002943 27.091010764241219 28.530892744660378 12.099190533161162 21.379485666751862 27.11352002620697 20.591886758804321 13.667843714356421 15.35958521068096
leaf_count=131 54 63 78 258 116 77 64 79 65 99 59 130 82 69 55 64 84 55 55 94 50 100 107 203 55 130 86 50 50 81 58 84 50 81 71 66 87 53 74 57 69 52 313 56 237 62 58 101 65 56 135 120 89 70 114 119 51 88 112 88 57 64
internal_value=0 0.124578 0.246746 0.471253 0.135409 0.0486384 0.164314 0.359626 0.317812 -0.232832 -0.0566162 -0.520072 0.0813772 0.449648 -0.547505 0.202521 0.086282 -0.709312 -0.147157 -0.289692 -0.867836 -0.292769 -0.268781 -0.786668 0.0632273 -0.190518 0.727841 0.283 -0.492495 -0.398921 -1.10707 0.11356 -0.612242 -0.262574 0.32047 0.746971 0.64022 0.400736 -0.432664 -0.0869329 -0.613485 -0.420205 0.809342 0.423961 0.894872 0.740556 -0.440383 -0.300335 0.0707332 0.318152 -0.688928 -0.559876 -0.318182 0.961556 -0.80396 0.127709 -0.339793 -0.560037 0.256462 -0.944353 -0.361213 0.398042
internal_weight=0 1040.21 775.227 363.401 157.392 411.826 327.246 225.537 129.231 264.985 169.863 276.117 131.252 113.241 95.1222 112.04 97.2743 150.674 155.819 115.153 50.135 125.443 101.71 137.557 45.0842 44.9871 206.008 31.899 80.3587 84.5797 37.967 52.0959 92.3547 32.705 63.8563 94.2848 79.6318 45.6271 92.713 31.8382 60.8749 44.283 174.109 31.6229 142.486 92.5693 75.7291 60.1163 27.78 26.6237 56.3816 64.8678 36.4386 34.0048 59.6497 45.5268 24.204 35.529 40.6654 47.6829 33.418 31.9079
internal_count=5600 4434 3339 1594 656 1745 1392 974 540 1095 703 1166 556 475 392 477 413 645 644 477 207 521 418 591 185 185 938 136 336 353 157 217 388 136 274 418 352 195 383 131 252 183 802 134 668 431 311 247 118 118 236 272 152 157 252 190 101 146 167 202 139 133
shrinkage=0.1


Tree=9
num_leaves=63
num_cat=0
split_feature=25 25 26 27 25 26 27 24 24 22 5 27 27 22 27 17 11 21 5 21 25 3 27 26 24 6 9 27 9 27 24 7 17 25 10 1 19 3 4 4 9 22 5 25 21 11 17 17 10 7 22 14 25 24 5 21 1 8 14 19 3 15
split_gain=75.0778 49.5483 27.5472 34.8123 14.6347 14.2123 19.9475 13.8569 13.8093 24.9354 11.0209 10.6196 10.2131 13.6276 11.9965 11.3172 15.5409 9.82178 9.63918 9.25083 8.95098 8.90164 8.88756 8.70059 9.52419 8.5141 8.49767 8.13153 7.80553 7.6211 8.69087 7.48075 6.54295 6.37305 8.52506 6.23752 6.11977 7.01943 8.39474 8.566 6.91493 6.69618 6.10577 6.46916 5.8762 5.81236 5.60348 5.57739 5.5347 5.42469 5.39368 5.38824 5.21133 5.06898 4.85322 4.74078 5.91991 4.64385 4.53449 4.52251 4.29581 4.07819
threshold=1.0675000000000001 0.6695000000000001 0.77650000000000008 0.90450000000000019 1.5695000000000001 0.87950000000000006 0.80850000000000011 1.2805000000000002 1.0265000000000002 0.99050000000000005 1.3365000000000002 1.1225000000000003 0.90250000000000019 1.0285000000000002 0.88050000000000017 0.73150000000000015 -0.5724999999999999 0.89250000000000018 0.85250000000000015 1.0095000000000003 0.94850000000000001 2.0310000000000001 0.84450000000000014 0.74250000000000005 0.7855000000000002 -0.097499999999999989 1.1275000000000002 0.92650000000000021 0.74550000000000016 0.85250000000000015 1.1275000000000002 0.65550000000000008 1.4605000000000004 0.79550000000000021 -0.097499999999999989 -0.19549999999999998 1.1445000000000001 1.3285000000000002 -0.99449999999999983 -0.30949999999999994 0.90350000000000008 0.94750000000000012 1.1045000000000003 0.81050000000000011 0.92450000000000021 1.0995000000000001 0.60550000000000004 0.57750000000000001 -1.3164999999999998 -0.046499999999999993 0.80150000000000021 0.75200000000000011 1.8325000000000002 0.89050000000000018 0.59850000000000014 1.3625000000000003 0.88050000000000017 1.0000000180025095e-35 -0.66349999999999987 0.092000000000000012 0.56650000000000011 -0.36299999999999993
decision_type=2 2 2 2 2 2 2 2 2 2 2 2 2 2 2 2 2 2 2 2 2 2 2 2 2 2 2 2 2 2 2 2 2 2 2 2 2 2 2 2 2 2 2 2 2 2 2 2 2 2 2 2 2 2 2 2 2 2 2 2 2 2
left_child=1 10 18 5 7 6 20 12 9 57 11 17 14 -14 15 46 -17 22 51 -11 61 42 23 25 -25 54 -15 -12 -9 -6 -31 -18 52 34 -7 -21 37 38 -19 -40 41 -41 47 -44 -8 59 -2 -10 -35 -20 -26 58 -32 -24 -1 56 -49 -5 -3 -30 -60 -4
right_child=4 2 3 8 29 33 44 28 21 19 27 -13 13 26 -16 16 31 36 49 35 -22 -23 53 24 50 -27 -28 -29 45 30 32 -33 -34 48 -36 -37 -38 -39 39 40 -42 -43 43 -45 -46 -47 -48 55 -50 -51 -52 -53 -54 -55 -56 -57 -58 -59 60 -61 -62 -63
leaf_value=-0.053183467017276768 -0.041921799029494805 -0.011481763499245474 0.045327415356913578 -0.10839678359745582 0.01007145695613778 0.096938189839040512 -0.084311173069879453 -0.045560191869951958 -0.034632478673297093 0.075499019929661126 0.082254511933766913 -0.089106829272681029 -0.098178935902486622 -0.062806631844701089 0.073701416784344428 -0.085790256672637996 0.0014304639903579067 0.089621902652445129 -0.011647145338022927 0.045723969404758001 -0.0074295635920483471 -0.041208525079097058 -0.13471299782305926 0.084464594178552427 0.028431908130722456 -0.088141949488732052 0.03143541256784136 -0.011648351750870008 0.098803994647029519 -0.095581420251948754 -0.018861493410593358 0.091413089956956628 0.017965130430400891 0.028879304589806722 -0.00033393837409229223 -0.046503306543986017 -0.044838495189680236 -0.035358855991919493 -0.051936982373147395 0.047643763785767436 0.086989446531393011 -0.048319877862848776 0.0046083689813897124 0.088453854137870103 0.0097816855947791565 -0.017291513748026927 -0.12513303966914868 0.067415948867961692 0.10212264952319544 0.082937721891448213 -0.051580409019642948 0.010732285664255114 -0.088483292984811779 -0.051810274696040326 0.036342895900755297 -0.020776152967017229 -0.012191117994476405 -0.03527668718673705 -0.031933609217462015 0.023411215507352628 -0.10581642241738139 0.093034541296665524
leaf_weight=11.829781144857408 20.95976123213768 15.273452222347258 28.955688551068306 23.39809575676918 12.716457784175871 17.689240276813507 13.4457193762064 14.129156127572058 13.953381240367888 21.838661566376686 17.94059431552887 23.090239465236664 46.956922233104706 20.048889890313148 13.177990883588789 16.000359565019608 29.413476347923279 16.730415999889374 12.595972597599031 12.20009468495846 16.008015885949135 15.062398657202719 12.114652365446092 12.189476683735846 14.426098391413687 28.260285943746567 18.301764637231827 18.975512564182281 16.550151035189632 67.634775936603546 17.647001326084137 13.470161259174345 13.544774010777472 11.382635191082953 18.363019615411758 18.382445767521858 22.930140540003777 23.639756232500076 16.479290276765823 15.994326487183573 15.276292026042936 13.332582652568815 12.2431104183197 37.04825122654438 13.107311144471167 12.767389729619024 13.182581812143324 39.238380163908005 110.21387083828449 11.692103803157805 20.253148302435875 15.757998108863829 27.513444855809212 18.853003919124603 12.404642656445501 12.238566517829893 12.260132625699041 13.813435554504393 12.811926186084746 15.322978302836416 20.400988847017288 47.008314624428749
leaf_count=50 87 65 134 97 52 83 58 58 58 95 79 96 206 82 55 66 122 70 53 51 67 61 51 51 59 118 76 78 68 306 73 56 57 54 87 77 95 98 68 66 64 55 52 160 56 52 54 164 533 50 83 64 119 78 51 51 51 57 54 63 87 219
internal_value=0 0.147544 0.316951 0.406685 -0.377087 0.646485 0.384859 -0.232573 0.120829 -0.186515 -0.173475 -0.241691 -0.362919 -0.620585 -0.15595 -0.282447 -0.0168553 -0.182824 -0.197795 0.257871 0.605287 0.314768 -0.374657 -0.228874 0.084294 -0.508479 -0.178323 0.339868 0.192183 -0.637191 -0.711463 0.296949 -0.429944 0.843184 0.473932 -0.0971168 0.0181839 0.123637 0.268619 0.0967205 0.324344 0.0401683 0.400986 0.676281 -0.378643 0.397214 -0.740502 0.226323 0.952663 0.338853 -0.182964 -0.400679 -0.612777 -0.842421 -0.0735846 0.351688 0.484641 -0.812536 -0.565779 0.62559 -0.77316 0.748497
internal_weight=0 911.103 596.383 507.851 389.338 276.174 118.525 250.282 231.677 89.6327 314.72 277.804 191.512 85.3076 106.204 93.0263 58.884 254.714 88.5324 52.4212 91.972 142.044 130.331 99.3634 46.8687 52.4947 38.3507 36.9161 58.7697 139.056 126.34 42.8836 58.7052 157.649 36.0523 30.5825 124.383 101.453 77.8129 61.0825 44.6032 29.3269 126.982 49.2914 26.553 44.6405 34.1423 77.6905 121.597 24.2881 34.6792 64.2444 45.1604 30.9677 24.2344 63.7371 51.4985 37.2115 48.4864 31.8731 33.2129 75.964
internal_count=5600 3948 2638 2265 1652 1291 534 1045 974 377 1310 1153 804 364 440 385 244 1057 373 223 420 597 541 412 193 219 158 157 241 607 555 178 249 757 170 128 516 421 323 253 185 121 536 212 114 183 141 324 587 103 142 270 192 129 101 266 215 154 206 131 141 353
shrinkage=0.1


Tree=10
num_leaves=63
num_cat=0
split_feature=25 25 5 27 24 9 27 21 9 4 21 21 17 25 11 13 5 5 27 15 19 17 11 3 5 10 27 27 13 21 25 1 7 24 21 9 5 7 11 7 10 12 9 25 15 9 21 6 10 27 25 21 27 17 17 7 10 24 1 10 3 9
split_gain=65.3747 49.4021 23.7318 15.5256 14.9791 14.2252 13.1603 13.1999 12.3129 12.0351 10.8874 10.8732 9.77478 11.1596 9.53834 9.44974 8.88633 7.93114 8.42364 7.73917 7.29666 6.30183 6.17775 6.16896 7.86935 6.40022 5.72866 5.70457 8.74642 8.91619 9.15228 7.58043 10.1913 7.16569 6.47241 5.56867 5.52949 5.46829 5.32767 6.71146 6.28995 5.72854 5.3029 6.17558 7.80523 5.27784 6.70428 5.70881 6.54038 6.06185 5.06272 5.0342 4.9063 4.87415 4.6386 4.59311 4.39376 4.21079 5.23655 4.1961 4.15726 4.77678
threshold=1.0565000000000002 0.66550000000000009 0.88150000000000006 0.9085000000000002 1.2485000000000002 1.2475000000000003 1.1085000000000003 1.0925000000000002 1.7855000000000003 1.2535000000000003 0.73150000000000015 1.2440000000000002 1.6115000000000002 0.94550000000000012 -0.5724999999999999 0.79250000000000009 0.63450000000000017 1.3365000000000002 1.0375000000000003 1.2825000000000002 -0.37449999999999994 1.2035000000000002 -0.96549999999999991 1.6085000000000003 1.2555000000000003 -0.81549999999999978 0.92650000000000021 0.85250000000000015 0.9405 0.82250000000000012 0.52350000000000019 0.89550000000000007 0.28450000000000003 1.0375000000000003 0.95150000000000012 0.68250000000000022 0.96850000000000003 -0.52849999999999986 0.028500000000000004 -1.0694999999999999 -0.18749999999999997 1.6610000000000003 0.9105000000000002 1.8325000000000002 0.6625000000000002 0.82350000000000001 0.89250000000000018 -1.2374999999999998 1.2805000000000002 0.68950000000000011 0.47750000000000004 1.6535000000000002 0.87450000000000017 0.94950000000000012 0.93550000000000011 0.21550000000000002 0.067500000000000018 0.69150000000000011 -0.66749999999999987 -0.085499999999999979 1.1555000000000002 0.68950000000000011
decision_type=2 2 2 2 2 2 2 2 2 2 2 2 2 2 2 2 2 2 2 2 2 2 2 2 2 2 2 2 2 2 2 2 2 2 2 2 2 2 2 2 2 2 2 2 2 2 2 2 2 2 2 2 2 2 2 2 2 2 2 2 2 2
left_child=1 17 5 35 6 11 7 10 9 23 15 12 13 45 -12 36 -15 27 -19 20 -16 52 -6 24 25 -5 -9 28 31 -30 -31 38 -33 34 -29 -4 -2 59 41 -40 -41 55 -24 44 53 47 -47 -3 49 -49 -35 -13 -22 -44 -48 -1 -26 -37 -59 -8 61 -51
right_child=4 2 3 8 22 -7 37 26 -10 -11 14 51 -14 16 19 -17 -18 18 -20 -21 21 -23 42 -25 56 -27 -28 33 29 30 -32 32 -34 50 -36 57 -38 -39 39 40 -42 -43 43 -45 -46 46 54 48 -50 60 -52 -53 -54 -55 -56 -57 -58 58 -60 -61 -62 -63
leaf_value=-0.0037114668627221009 -0.089729795028910153 0.074829057423169976 0.10746763002962396 -0.039882564559148903 0.044929488750870439 0.078779853817110002 -0.012294263820566202 0.064047777714574414 0.120353356727094 -0.066879104033555375 -0.097150627390573563 -0.083224451144362138 0.084623918237966791 -0.096845583261101931 -0.091354167792584401 0.049264281180393256 -0.0036444100827555796 0.06925747493893368 -0.031089308001208956 0.02283912266771192 0.048342446512896153 -0.078737099020730283 -0.051322385512840796 -0.014087783562616592 0.050747696695164081 0.042138039659520808 -0.022384659963330167 -0.10013154278812562 -0.047943446313397246 0.0085165400152718059 0.10952146658314671 -0.015503604195632112 -0.13595656375483448 -0.059599160890486294 -0.025614311835457201 0.02364102913861835 0.0022741552727581311 -0.11204573969414662 0.029668097749296247 -0.092679048250795509 -0.017470868674567021 -0.031558731297252833 0.012536708685353923 -0.044724437488196926 -0.043466869546492655 0.0738597890237052 0.044117724498914546 -0.058414718775852026 0.063767496653581224 0.042276337439201388 0.012493911307502742 -0.0036636743463048607 -0.037585354453878138 0.094569359282148657 -0.033837506080627404 0.071598690609375501 0.13129564522461376 0.029172100978435568 0.086939427194043128 -0.094664952393784585 -0.030377373902369078 -0.020110769364360646
leaf_weight=15.518079742789267 12.718909129500391 11.207271248102186 40.331403791904449 13.079707637429236 21.759327322244644 30.236944928765297 13.100940749049188 17.196722656488422 13.00198322534561 14.678438290953634 44.855470567941666 17.985803917050362 18.012717247009277 15.866014108061789 30.730651870369911 19.676215708255768 28.79940077662468 20.62500973045826 14.073908627033232 15.820798411965368 12.318295806646349 15.146026417613028 27.147551536560059 23.9395592212677 15.056112527847292 34.895041137933731 13.839652538299559 28.121477097272873 13.060953602194784 22.990856051445007 14.711525261402128 15.112163528800012 13.124496549367903 15.047462731599806 19.907560527324677 20.91618487238884 13.429970055818556 36.424756661057472 12.654843181371687 20.990919694304466 23.648536190390587 20.876604482531548 15.073819369077684 19.352255165576935 12.166687116026877 32.685044273734093 16.868599921464924 19.936956226825714 14.03971481323242 33.302567034959793 27.621189072728157 14.257417142391203 14.427560508251188 13.942708060145376 13.941563189029692 16.937645524740219 12.308434873819349 20.426350697875023 67.7047368735075 11.714284554123877 24.77404710650444 19.435218378901482
leaf_count=64 53 50 201 56 91 136 59 72 58 62 192 75 80 67 132 83 122 91 58 68 51 64 113 99 66 150 59 121 54 95 62 63 55 62 83 101 57 169 53 88 98 87 62 85 50 148 73 85 62 151 114 59 64 57 62 70 54 99 337 53 108 87
internal_value=0 0.154097 0.325373 0.538676 -0.339946 0.136057 -0.465884 -0.347015 0.281567 0.176375 -0.451335 0.065954 0.136744 0.0813854 -0.595887 -0.030854 -0.367513 -0.165425 0.285567 -0.405385 -0.543453 -0.271967 -0.0276382 0.301334 0.44185 0.197762 0.255061 -0.221249 -0.122592 0.232617 0.479288 -0.252443 -0.714906 -0.427517 -0.692449 0.757196 -0.424769 -0.873814 -0.134403 -0.346131 -0.528362 0.0930541 -0.145993 0.0186936 0.237641 0.189072 0.423113 0.0679549 -0.000435143 -0.0923694 -0.129303 -0.48044 0.0199027 0.519542 0.0884307 0.355906 0.869778 0.639775 0.735506 -0.511782 0.0341216 0.192851
internal_weight=0 902.71 587.687 276.338 380.843 311.349 271.4 210.16 126.959 113.957 179.124 281.112 248.869 230.856 133.299 45.8251 44.6654 315.023 34.6989 88.4433 72.6225 41.8919 109.442 99.2789 75.3393 47.9747 31.0364 280.324 189.627 50.7633 37.7024 138.863 28.2367 90.6977 48.029 149.379 26.1489 61.24 110.627 57.2943 44.6395 53.3323 87.683 60.5355 41.1832 186.191 63.4952 122.696 111.489 97.4488 42.6687 32.2432 26.7459 29.0165 30.8102 32.4557 27.3645 109.047 88.1311 24.8152 77.5118 52.7378
internal_count=5600 3966 2648 1283 1634 1365 1176 895 545 487 764 1229 1095 1015 571 193 189 1318 149 379 311 179 458 425 326 206 131 1169 789 211 157 578 118 380 204 738 110 281 460 239 186 221 367 254 169 826 283 543 493 431 176 134 115 119 135 134 120 537 436 112 346 238
shrinkage=0.1


Tree=11
num_leaves=63
num_cat=0
split_feature=25 25 26 27 25 24 5 27 21 27 26 14 5 21 27 10 13 24 5 21 5 3 5 27 23 26 26 6 25 26 24 16 24 24 21 4 5 27 13 3 8 16 1 14 26 27 17 10 5 13 21 23 27 9 25 19 27 17 25 5 14 6
split_gain=53.6661 40.7052 24.0071 29.7382 16.349 12.3885 11.9118 11.3333 10.7995 10.5554 10.8497 10.0178 9.19712 8.97412 8.30228 7.93558 7.67233 7.61669 7.28039 9.33235 6.80718 6.69504 6.48319 6.94831 6.33818 7.33096 6.10204 8.20656 6.93394 6.03924 5.81056 5.63651 5.59565 6.75083 5.34084 5.32004 5.02788 6.30776 9.33793 6.86263 6.53406 6.82589 5.93723 5.3504 5.05946 10.6079 6.5216 4.98502 5.64558 5.57118 4.98079 4.85494 4.82361 4.6547 5.22577 6.1007 5.55736 5.17972 4.59834 4.43279 4.12915 4.12072
threshold=1.0565000000000002 0.66550000000000009 0.85650000000000015 1.0105000000000002 0.94550000000000012 1.2485000000000002 1.2635000000000003 1.1085000000000003 1.0925000000000002 0.76050000000000006 0.77250000000000008 0.7855000000000002 1.0895000000000004 0.73150000000000015 0.85950000000000004 -0.90449999999999997 0.79250000000000009 0.87750000000000006 0.59850000000000014 0.6905 0.80850000000000011 0.78150000000000019 1.3365000000000002 1.0375000000000003 0.99550000000000016 1.0315000000000001 1.4625000000000001 -0.62449999999999994 0.90350000000000008 0.99750000000000016 0.78250000000000008 1.0000000180025095e-35 0.73550000000000015 0.77650000000000008 1.1775000000000002 0.21250000000000002 0.39950000000000008 0.84450000000000014 1.3085000000000002 0.33650000000000008 1.6300000000000001 1.0000000180025095e-35 0.89550000000000007 0.69750000000000012 0.76750000000000018 0.68250000000000022 0.86050000000000015 -0.64849999999999997 1.2105000000000004 1.2295000000000003 0.88050000000000017 0.99050000000000005 0.92250000000000021 0.74550000000000016 1.8325000000000002 -0.15899999999999997 1.4515000000000002 0.94450000000000001 0.51650000000000007 0.62150000000000005 -0.12149999999999998 -0.084499999999999992
decision_type=2 2 2 2 2 2 2 2 2 2 2 2 2 2 2 2 2 2 2 2 2 2 2 2 2 2 2 2 2 2 2 2 2 2 2 2 2 2 2 2 2 2 2 2 2 2 2 2 2 2 2 2 2 2 2 2 2 2 2 2 2 2
left_child=1 22 4 12 9 7 17 8 13 10 20 21 14 16 18 -16 35 -5 -4 -20 31 -11 36 -24 25 -17 27 -19 51 -10 -6 -3 -15 -34 -9 -2 -1 38 39 -38 41 43 44 -39 45 46 -41 49 -49 -35 -43 -29 -26 -7 55 -55 -56 -57 60 -44 -47 -23
right_child=5 2 3 6 30 53 -8 34 29 11 -12 -13 -14 32 15 24 -18 26 19 -21 -22 61 23 -25 52 -27 -28 28 -30 -31 -32 -33 33 47 -36 -37 37 40 -40 42 -42 50 59 -45 -46 58 -48 48 -50 -51 -52 -53 -54 54 56 57 -58 -59 -60 -61 -62 -63
leaf_value=-0.078189600205641294 -0.079673759018238588 0.018971274986264035 0.020694564812631273 -0.075824133752008444 -0.024224300305507363 -0.045812282976774532 0.051204778894563256 -0.10060884128002603 0.074585868993858051 -0.096399258434522128 0.072077474862482727 0.056285360767571825 0.095631856039235019 0.00046517865928827394 -0.028377976162208302 -0.012158573444407919 0.044248361281280617 0.043117148870775973 0.0080948930064339893 0.098591677646719153 0.051288652376732795 -0.052684119594526936 0.063475268449901492 -0.028004355844515567 0.11972392862807109 0.070588791712797902 0.058926740122148817 0.039482043738779365 -0.081534563339297761 -0.014831760223508021 -0.11484081767215343 -0.056693242255462066 -0.13270725987734608 0.012820090694783168 -0.035402160226211052 0.011190691336220741 0.046039936024928063 -0.053859465204258286 0.077148399845315407 -0.020471635665990064 0.008552429023623161 -0.13183625389246975 -0.015323850900802492 0.026691172946037435 0.018653448584524637 0.0060443409061732151 0.071206265489143106 -0.080831461561950146 -0.0055038413948868842 -0.073058362873107394 -0.054988036480485392 -0.046460475339012548 0.03536148194790268 0.05872203668235082 -0.068609757049770612 -0.040864029940807317 0.021547586543525871 0.037828813842962335 -0.10511706463790611 -0.095739870217938824 -0.074621154799733136 0.029087963644975734
leaf_weight=14.118247359991072 14.210631579160692 19.333507403731346 22.76827546954155 16.532856464385986 13.952296301722528 20.213896840810776 39.534576445817947 41.624087899923325 13.10155498981476 16.448175519704819 39.944576546549797 12.177739664912222 65.028669685125351 16.392919808626175 18.551907762885094 26.255743309855461 19.713732808828354 17.982336521148682 13.530761599540709 72.201876625418663 20.681129857897758 13.050547778606415 20.272358655929565 14.062436312437056 15.435564801096918 18.078874170780182 13.913565084338186 13.298484191298487 19.635941848158836 17.836147233843803 14.358518242835997 20.060804277658463 12.07992112636566 19.347637057304386 17.989895269274712 11.789206475019453 17.978063642978668 20.079166978597641 12.647268012166021 18.736337587237362 22.895493403077126 13.290565773844717 12.103555411100389 13.992524996399878 41.033395826816559 12.688646718859669 13.244217827916144 59.828264862298965 11.934133768081663 12.392528131604193 23.080264866352081 12.997235849499701 12.083108335733412 27.410914987325668 15.432237625122072 18.2563666254282 12.275482475757597 15.437220454216002 14.352733641862867 15.806840583682058 12.694503709673885 11.676160931587219
leaf_count=60 60 81 108 70 59 84 173 202 55 72 187 54 335 69 82 115 83 75 66 371 90 57 91 58 74 79 58 56 82 76 62 86 53 83 79 50 75 85 53 78 95 58 51 59 171 53 55 259 53 54 97 54 51 113 68 75 54 64 60 66 53 51
internal_value=0 0.140603 0.297564 0.43511 -0.00361795 -0.309257 0.0512479 -0.424785 -0.314909 0.125263 0.316865 -0.233931 0.629844 -0.409844 0.523109 0.299292 -0.0279971 -0.141815 0.709599 0.84309 0.048302 -0.469585 -0.149937 0.260081 0.449836 0.215843 -0.0108684 -0.141513 -0.36572 0.23035 -0.701827 -0.195594 -0.542108 -0.619655 -0.809312 -0.384727 -0.200442 -0.16942 -0.0554496 -0.121376 -0.378568 -0.529409 -0.195734 -0.20779 -0.0935149 -0.253748 0.174953 -0.537091 -0.683044 -0.2071 -0.830698 -0.0299693 0.826814 -0.025019 0.0735566 0.2369 -0.286669 -0.0480973 -0.598779 -0.608669 -0.342977 -0.140707
internal_weight=0 892.59 579.513 397.83 181.683 377.267 133.895 268.241 208.627 153.373 100.02 53.3526 263.935 177.689 198.906 90.4052 45.7136 94.3604 108.501 85.7326 60.0754 41.1749 313.077 34.3348 71.8533 44.3346 77.8276 63.914 45.9317 30.9377 28.3108 39.3943 131.975 115.582 59.614 25.9998 278.742 264.624 171.286 158.638 93.338 70.4425 140.66 34.0717 112.75 71.7164 31.9806 103.503 71.7624 31.7402 36.3708 26.2957 27.5187 109.026 88.8122 61.1045 27.7077 33.6936 39.7359 27.9104 25.3832 24.7267
internal_count=5600 3966 2648 1849 799 1634 568 1176 895 678 444 234 1281 764 946 401 193 395 545 437 257 180 1318 149 319 194 325 267 192 131 121 167 571 502 281 110 1169 1109 715 662 394 299 587 144 470 299 133 449 312 137 155 110 125 458 374 252 122 139 166 117 106 108
shrinkage=0.1


Tree=12
num_leaves=63
num_cat=0
split_feature=25 25 5 0 22 22 26 27 25 24 27 26 22 21 5 21 9 18 9 24 27 24 2 24 26 25 11 25 21 6 1 3 15 24 24 2 15 18 5 7 5 11 27 11 25 21 17 7 24 0 27 22 21 0 0 27 7 18 18 17 11 2
split_gain=44.114 33.9802 23.2894 19.2115 15.3634 13.5672 12.7208 11.4167 10.3575 10.1639 9.78139 11.0801 9.62463 10.9073 8.45947 8.44364 7.80501 7.71567 7.3808 6.89904 7.61402 6.5979 9.68295 6.57906 6.46423 8.07724 6.42742 6.12614 6.07461 6.49535 8.5173 10.5775 8.19648 5.79622 6.84446 6.85975 5.92549 5.46113 6.21525 7.37807 5.44593 6.16987 6.60324 5.28978 5.23721 5.20149 5.52866 5.60915 5.19167 7.08495 4.97479 4.90026 6.51874 4.773 4.72503 4.61108 4.5244 4.39641 6.85545 6.4506 4.60887 4.35939
threshold=1.0565000000000002 0.59250000000000014 0.88150000000000006 2.2265000000000006 1.0265000000000002 0.77950000000000019 0.77650000000000008 0.85450000000000015 1.9045000000000003 1.0265000000000002 0.90650000000000019 0.87750000000000006 0.97750000000000015 1.0675000000000001 1.1735000000000002 0.62050000000000016 1.0475000000000001 0.48850000000000005 1.8745000000000003 1.4665000000000001 0.99350000000000016 1.3235000000000003 0.80950000000000022 1.1525000000000001 1.0805000000000002 0.81050000000000011 -0.50549999999999995 0.94550000000000012 0.91150000000000009 1.2645000000000002 -0.86349999999999982 1.5125000000000002 0.63400000000000012 0.72150000000000014 0.98050000000000004 0.43550000000000005 -0.076499999999999985 -0.59649999999999992 1.1325000000000003 -0.27649999999999997 1.2885000000000002 -0.87049999999999994 1.0545000000000002 0.49500000000000005 0.83950000000000002 0.58250000000000013 0.78150000000000019 0.69350000000000012 0.79950000000000021 1.0375000000000003 0.72950000000000015 1.0305000000000002 0.98350000000000015 0.79950000000000021 1.1195000000000002 0.95050000000000001 -0.38549999999999995 -0.50549999999999995 -0.88049999999999995 0.64450000000000018 -0.84049999999999991 -0.099499999999999991
decision_type=2 2 2 2 2 2 2 2 2 2 2 2 2 2 2 2 2 2 2 2 2 2 2 2 2 2 2 2 2 2 2 2 2 2 2 2 2 2 2 2 2 2 2 2 2 2 2 2 2 2 2 2 2 2 2 2 2 2 2 2 2 2
left_child=1 28 6 10 5 14 48 16 21 12 11 37 -9 -14 -2 -7 27 19 23 20 -11 22 26 40 -25 -26 -6 57 45 30 -30 32 51 -17 54 36 43 -4 39 -39 41 -12 -43 -36 -19 -1 -47 50 49 53 -48 52 -32 61 -35 -28 -27 58 -8 -59 -61 -3
right_child=4 2 3 -5 8 15 7 9 -10 17 18 -13 13 -15 -16 33 -18 44 -20 -21 -22 -23 -24 24 25 56 55 -29 29 -31 31 -33 -34 34 35 -37 -38 38 -40 -41 -42 42 -44 -45 -46 46 47 -49 -50 -51 -52 -53 -54 -55 -56 -57 -58 59 -60 60 -62 -63
leaf_value=0.024533192390429542 -0.02871224765732483 0.033581224608144424 -0.0049279979746547414 -0.058077037070933972 -0.06988966934779163 0.011894828841456857 0.048690631829959363 -0.080404541134737315 -0.056278875237697951 0.069624153971405173 0.043591429652447167 0.093981859423133099 0.056898569255540044 -0.063889529693071642 0.068932164284782757 -0.0025457882055954129 0.089240696809270242 -0.070278834798998491 0.11096513854322054 0.10854280287782377 -0.024455417505082053 0.055794935994004251 0.057530397949557624 0.10066313336288649 -0.037075852583537842 0.013589836099251077 0.036143674372652888 -0.025024061680934347 0.04292746932131241 0.065984701335687471 -0.0052744487890815858 -0.11065987471157422 0.051160967507108447 -0.072461300521164965 0.05504235689643934 -0.081749915801093462 -0.055153472131024853 -0.032152195576605778 0.10020439771563161 0.0706280208276477 0.044854636736602393 -0.0043236491270230212 -0.098972250836007664 -0.037214934255562646 0.020484718091534241 -0.062220605679148291 0.048543360788084744 -0.065909821478624189 -0.059441254735021015 -0.06822236854788058 -0.02508189671894942 0.014617437053725174 -0.10191854957412971 0.064483161545753231 -0.12818615252824583 -0.030121302849676096 0.098474492265662114 0.0045396000224688588 -0.046327107883591123 0.017606844600645013 0.093445078196735309 -0.045629261520816401
leaf_weight=13.53379015624523 20.888771831989288 12.747146785259245 19.773479223251343 16.921097174286842 18.964813053607941 17.905832052230835 17.19016253948212 25.642597243189812 27.412269786000252 17.060640841722488 11.71896009147167 81.372941061854362 16.716126427054409 13.52456548810005 15.423878967761992 15.998305648565291 24.621833667159081 12.18362805247307 10.709409415721892 12.652753323316572 17.351725935935974 26.594010278582573 20.744179502129555 17.02695706486702 13.106731846928595 11.572809860110283 19.342236205935478 18.796414941549301 22.358725726604462 12.449680536985396 12.99688705801964 12.671248465776442 15.983968049287794 61.303275719285011 13.277589067816736 32.821118623018265 27.992676198482513 12.020156607031824 19.986347496509552 16.671024039387703 20.208984762430191 18.697493791580204 12.1679610311985 11.683862611651419 13.294240489602087 59.635769933462143 14.623107835650442 17.370795458555222 30.412261754274368 14.403333052992819 24.643823534250259 14.378303110599516 15.074094280600546 12.613965675234793 20.240031510591507 22.973824918270111 13.727378264069557 19.034663647413254 13.601089328527449 10.678969740867613 32.104246661067009 15.272461712360384
leaf_count=57 88 53 93 74 81 79 81 110 123 74 50 451 77 56 66 69 120 51 50 53 72 110 87 76 55 50 81 80 93 52 55 54 67 280 57 144 123 55 98 81 89 82 51 50 57 255 61 76 134 62 105 60 64 53 99 97 60 88 62 50 155 64
internal_value=0 0.128557 0.247208 0.453824 -0.281496 -0.434963 0.0726096 0.180993 -0.013515 -0.032844 0.516626 0.690399 -0.353368 0.0287842 0.127624 -0.536488 0.382881 0.214071 0.314702 0.454021 0.221865 0.125106 -0.0152302 0.242693 0.493762 0.266391 -0.215132 0.27027 -0.196401 -0.0186813 -0.109064 -0.278344 -0.0987369 -0.600509 -0.655493 -0.458291 -0.235653 0.393894 0.573917 0.275683 0.0210501 -0.181824 -0.416366 0.118589 -0.229188 -0.341407 -0.409701 -0.185948 -0.262822 -0.0795916 0.0233634 -0.328558 -0.571723 0.134023 -0.862929 0.00167737 0.596466 0.375915 0.0671947 0.529688 0.745154 -0.0959351
internal_weight=0 881.305 645.585 295.682 373.567 237.535 349.903 264.454 136.031 128.426 278.761 149.824 55.8833 30.2407 36.3127 201.223 136.027 72.543 128.937 47.0651 34.4124 108.619 82.0251 118.227 55.4339 38.4069 61.2809 111.406 235.72 105.913 93.4632 71.1045 58.4333 183.317 167.319 85.7752 52.9541 68.451 48.6775 28.6912 62.7934 42.5844 30.8655 24.9615 25.4779 129.807 116.273 56.6377 85.4492 55.0369 39.2669 42.4493 28.071 40.6336 81.5433 42.3161 25.3002 92.6091 30.7913 61.8179 42.7832 28.0196
internal_count=5600 3966 2967 1415 1634 1055 1552 1186 579 550 1341 778 243 133 154 901 636 307 563 199 146 456 346 513 241 165 259 516 999 445 393 300 246 822 753 374 230 327 234 136 272 183 133 107 108 554 497 242 366 232 166 179 119 170 379 178 110 436 143 293 205 117
shrinkage=0.1


Tree=13
num_leaves=63
num_cat=0
split_feature=25 25 26 25 0 22 22 13 21 22 0 5 18 18 21 23 2 9 13 18 26 24 21 24 0 0 26 5 22 21 22 9 22 22 9 17 4 14 11 10 25 10 18 2 26 17 24 25 26 26 16 26 21 9 23 22 13 2 22 7 2 25
split_gain=37.0104 33.8814 19.369 13.8824 10.6563 10.2115 11.1563 13.9353 10.1523 9.18282 9.06 8.53062 8.32837 8.15368 7.81826 8.31713 7.32965 7.11672 6.9589 6.56253 7.68579 8.54138 6.30608 8.74849 6.89576 6.24878 9.85234 6.89825 5.96071 6.20241 10.2674 6.89726 5.94928 5.81649 8.73379 5.45716 7.39841 5.36706 5.32876 7.4973 6.7791 7.10866 5.7462 5.25436 5.17354 5.08398 4.93759 6.40408 4.9222 4.83735 4.79162 4.66204 6.29498 4.52298 8.19643 4.40832 4.86291 4.30401 4.22009 4.2039 4.10596 5.3786
threshold=0.99250000000000005 0.66550000000000009 0.85650000000000015 0.94550000000000012 2.4805000000000006 1.0885000000000002 0.77950000000000019 0.65950000000000009 1.0625000000000002 1.0675000000000001 1.3285000000000002 1.0855000000000004 -0.59649999999999992 -1.6684999999999999 0.73950000000000016 0.98550000000000015 -0.27049999999999996 0.83850000000000013 0.70750000000000013 -0.60849999999999993 1.1955000000000002 1.3235000000000003 1.0870000000000004 1.2635000000000003 0.68150000000000011 1.3615000000000002 1.0065000000000002 0.63450000000000017 0.63650000000000018 0.90950000000000009 1.1035000000000001 1.1375000000000002 0.93450000000000022 0.7915000000000002 0.69350000000000012 0.57250000000000012 0.27300000000000008 0.61450000000000016 0.75250000000000006 -0.24449999999999997 0.46950000000000003 0.68250000000000022 0.10650000000000001 -1.2444999999999997 0.99750000000000016 0.7945000000000001 0.96250000000000002 0.90950000000000009 0.71950000000000014 1.1015000000000004 1.0000000180025095e-35 1.0975000000000004 1.3785000000000001 0.94750000000000012 0.98850000000000005 0.7985000000000001 0.83250000000000013 0.13150000000000003 0.9105000000000002 0.51550000000000018 1.3075000000000003 1.2265000000000004
decision_type=2 2 2 2 2 2 2 2 2 2 2 2 2 2 2 2 2 2 2 2 2 2 2 2 2 2 2 2 2 2 2 2 2 2 2 2 2 2 2 2 2 2 2 2 2 2 2 2 2 2 2 2 2 2 2 2 2 2 2 2 2 2
left_child=1 28 3 10 5 6 7 -2 9 25 12 51 18 -8 15 -15 -17 33 -3 53 57 50 23 60 -25 27 45 37 -1 30 31 35 -26 -14 -35 36 -30 -4 40 -40 41 48 59 -37 -24 -27 -11 -48 -31 -13 -22 52 -10 -7 -55 -45 -57 -21 -18 -42 61 -16
right_child=4 2 8 -5 -6 19 13 -9 11 46 -12 49 17 14 22 16 58 -19 -20 20 21 -23 44 24 32 26 -28 -29 29 38 -32 -33 -34 34 -36 43 -38 -39 39 -41 42 -43 -44 55 -46 -47 47 -49 -50 -51 -52 -53 -54 54 -56 56 -58 -59 -60 -61 -62 -63
leaf_value=0.054385242540613665 -0.05541121034273333 0.036041443299095005 -0.017283523553195713 -0.093382198832251101 -0.11873592522082935 -0.079579463660264999 0.034901195485654984 0.059937033116518927 0.05475423800378415 0.1165302402283117 -0.048747978383185446 0.10914472508332074 0.076942398714709356 0.060720743700350216 -0.052835487704377362 -0.087582653682318976 -0.038834721485570517 0.071144889645699178 -0.052879139756559813 0.026236663033511489 -0.077883782549732217 0.044947566710553423 0.037897851038482082 -0.074113636137479719 0.066050326801832926 0.088701170802121934 -0.045797731212599141 0.065379402700296602 -0.033753534579418619 0.053718725706904308 0.047872829817802338 0.018969685520101962 -0.034275631641877885 0.030445095888754489 -0.064198384051771043 0.027944504740563689 -0.12718423197782266 0.066765982416046699 -0.086051899446367972 0.0073503842830487612 0.037274054429468621 -0.083481503763284975 0.068497548704486197 -0.0040629084285465581 -0.043087686410125926 0.0052068411236643047 0.01685601106725362 0.11837160979849673 -0.025621339292748232 0.025005977637889351 0.0049590818105229202 -0.04893710419792377 -0.036535878856409791 0.054975546425380772 -0.054850480803024272 -0.084033134809634036 -0.024429981184289924 0.10341009771291783 0.043886790622036036 -0.034010497020670022 -0.02373001789689131 -0.097326155915912607
leaf_weight=12.738363713026045 16.814929753541946 14.199435979127882 20.909239336848259 14.073293805122374 11.276141002774237 12.039785236120222 14.631066709756849 27.77219794690609 16.428653553128246 30.351187229156494 22.03190703690052 10.710816502571108 11.567623779177664 13.302823960781096 47.409452050924301 14.37868921458721 12.419235229492189 36.533951386809349 23.14972397685051 15.446713283658029 14.815687239170074 21.499902650713921 13.008528545498846 13.197201982140539 11.875992432236673 14.890756338834764 18.291271686553955 111.90254862606525 16.995020642876625 13.034209281206129 15.607602685689924 18.707071095705032 11.767255529761313 27.588477581739426 15.079976901412008 12.138637796044348 16.906739965081215 11.933482229709623 15.41290859878063 19.424656137824059 18.808797225356102 12.158438652753828 26.063836947083473 21.190394580364227 20.039933919906616 14.292440563440321 15.664099290966989 10.300863742828367 19.544348239898682 18.873683258891106 13.204476952552795 20.482174873352051 13.982082471251486 12.220176279544832 15.307660818099974 30.958306893706322 24.538573861122131 13.579995185136793 12.250539243221281 14.769101321697233 15.719342648983 63.658113792538643
leaf_count=54 71 62 96 61 54 51 65 121 74 169 99 52 52 58 207 63 55 172 103 66 64 91 55 57 50 77 82 575 73 55 66 82 51 123 67 51 74 54 65 82 79 51 110 89 89 72 74 50 83 84 57 86 63 54 67 135 106 59 53 63 70 307
internal_value=0 0.13369 0.296349 0.015862 -0.227839 -0.202462 -0.298261 0.164363 0.436352 0.53631 0.104874 0.127655 0.206737 -0.376495 -0.419121 -0.0756862 -0.308331 0.370284 -0.190732 0.047546 0.214844 -0.0246469 -0.510536 -0.591009 -0.162053 0.432267 0.117441 0.535526 -0.125956 -0.154756 -0.290989 -0.375928 0.161181 0.140472 -0.0300401 -0.462145 -0.803472 0.132561 -0.0010791 -0.339729 0.111949 -0.182305 0.332667 -0.331872 -0.112102 0.478099 0.891431 0.571294 0.0612147 0.554677 -0.388442 -0.120576 0.127814 -0.284561 -0.0609644 -0.428636 -0.576789 0.623419 0.022432 0.0591984 -0.715651 -0.783352
internal_weight=0 802.235 493.238 164.224 437.636 426.36 308.245 44.5871 329.013 248.536 150.151 80.4774 128.119 263.658 249.027 52.3513 39.0485 90.77 37.3492 118.114 78.5468 49.5201 196.676 163.627 36.8404 192.22 47.4745 144.745 308.997 296.259 157.042 141.435 23.6432 54.2361 42.6685 122.728 33.9018 32.8427 139.216 34.8376 104.379 44.737 59.6417 88.8259 33.0485 29.1832 56.3162 25.965 32.5786 29.5845 28.0202 50.8929 30.4107 39.5676 27.5278 76.6873 55.4969 29.0267 24.6698 33.5779 126.787 111.068
internal_count=5600 3665 2347 739 1935 1881 1372 192 1608 1249 678 359 579 1180 1115 229 171 414 165 509 337 212 886 742 158 956 231 725 1318 1264 676 610 101 242 190 528 147 150 588 147 441 189 252 381 144 149 293 124 138 136 121 223 137 172 121 330 241 125 108 142 584 514
shrinkage=0.1


Tree=14
num_leaves=63
num_cat=0
split_feature=25 26 27 3 25 22 25 9 27 18 18 27 22 0 8 1 21 13 26 1 27 18 15 27 10 26 17 22 25 25 22 23 7 22 22 27 15 21 13 17 11 3 26 22 9 25 25 23 27 18 21 23 14 21 18 9 25 0 9 17 26 27
split_gain=30.5083 22.5149 31.2793 15.3152 12.5045 10.6587 9.47368 9.32809 8.85118 8.60479 9.64539 8.88854 8.48624 8.14067 10.1306 7.93909 7.30759 7.18966 6.83857 9.06785 7.70302 9.48087 7.3106 7.13427 6.44657 6.45015 6.385 6.3034 6.20454 8.56082 7.92835 6.14235 6.121 7.95954 5.97893 5.85871 5.80841 5.67767 5.59193 5.57135 8.12132 5.5597 5.45304 5.97649 5.30755 5.03067 4.99253 5.53007 4.99098 5.18269 4.98824 4.81562 4.75782 4.55989 4.54562 4.36657 4.9725 4.62135 4.33523 4.30345 4.21326 4.18735
threshold=1.1555000000000002 0.85650000000000015 0.90450000000000019 1.8335000000000001 0.94550000000000012 1.0125000000000002 0.68650000000000022 1.6725000000000003 0.74750000000000016 -0.05849999999999999 -1.7374999999999998 0.76250000000000007 0.77950000000000019 1.4305000000000001 1.6300000000000001 0.83950000000000002 1.1205000000000003 0.9085000000000002 0.72850000000000004 0.89550000000000007 0.66150000000000009 0.68350000000000011 -1.2794999999999999 0.76850000000000007 0.23450000000000001 0.7945000000000001 0.70250000000000001 0.83650000000000013 0.94850000000000001 0.64950000000000008 0.97150000000000014 0.99450000000000005 0.89850000000000019 0.9195000000000001 0.95150000000000012 1.0835000000000001 -1.2794999999999999 1.0575000000000003 1.0175000000000003 0.73150000000000015 0.055500000000000008 0.57250000000000012 0.82650000000000012 0.99050000000000005 0.83350000000000002 2.0390000000000001 0.99250000000000005 0.99850000000000005 0.71050000000000002 0.27050000000000007 0.89750000000000008 0.99050000000000005 0.59050000000000014 0.84750000000000003 -0.18249999999999997 0.59350000000000003 0.88750000000000007 0.8155 0.82850000000000013 0.6605000000000002 1.4265000000000001 1.0925000000000002
decision_type=2 2 2 2 2 2 2 2 2 2 2 2 2 2 2 2 2 2 2 2 2 2 2 2 2 2 2 2 2 2 2 2 2 2 2 2 2 2 2 2 2 2 2 2 2 2 2 2 2 2 2 2 2 2 2 2 2 2 2 2 2 2
left_child=1 4 6 5 9 12 17 13 -8 10 -1 24 -2 14 28 32 46 27 19 20 21 -11 -20 59 25 44 -26 -3 29 52 -30 61 33 -15 -29 36 -14 39 -9 40 -38 -41 43 -13 -12 -7 -10 -48 -6 -50 -22 -43 -4 -25 -35 -16 -57 -58 -55 -24 -37 -31
right_child=3 2 7 -5 48 45 8 38 16 18 11 42 35 15 55 -17 -18 -19 22 -21 50 -23 23 53 26 -27 -28 34 30 31 -32 -33 -34 54 -36 60 37 -39 -40 41 -42 51 -44 -45 -46 -47 47 -49 49 -51 -52 -53 -54 58 -56 56 57 -59 -60 -61 -62 -63
leaf_value=0.056855993499243307 0.017048566605685565 0.04495726870471841 -0.06906892836535132 -0.10762573402304886 -0.013888993961958815 0.013330024639529049 -0.031308758501944332 0.00095513518398568332 0.081825309844445276 0.10345106712097603 -0.067111366408526468 -0.11015849996777297 0.028549404681108521 -0.060811559739354676 0.075955173029618517 -0.10680400741873326 0.0039609068806292164 0.067635784737744772 -0.035557627592469734 -0.063691128488078272 -0.061303370901084168 -0.014430848973456561 0.11313216822233618 -0.038445312774809927 -0.031475644170818343 0.038064755973136133 0.058059597212034436 -0.092596739240292089 -0.10652111010712627 0.01338541262271843 -0.0078669426869342925 -0.021276663939761322 -0.071762104916684333 -0.0065987213779877263 0.0075705479432147463 -0.11889922799981573 -0.13621717147799403 0.020390179854537949 0.09152079844927162 0.0089502075461258372 -0.032062527669888492 -0.10171061433508777 -0.0089953206835977195 -0.025771746177044471 -0.0026878290613080637 -0.043020404733174811 0.065101163752703792 -0.017591248494941959 -0.12763731713011262 -0.040275931301904461 0.024170225535658892 -0.021353475926152651 0.010057287858160723 0.075958630818899156 0.078977870590310112 -0.0091540245082380074 0.018091742731877466 0.090725268074823048 -0.0091213074038453412 0.047119655466083925 -0.047745714653024844 0.074945545181774945
